{
    "n_inputs": 28,
    "firstlayer": {
        "basics": {
            "value": {
                "shape": [
                    1,
                    28
                ],
                "array": [
                    0.0,
                    0.0,
                    0.0,
                    0.0,
                    0.0,
                    0.0,
                    0.0,
                    0.0,
                    0.0,
                    0.0,
                    0.0,
                    0.0,
                    0.0,
                    0.0,
                    0.0,
                    0.0,
                    0.0,
                    0.0,
                    0.0,
                    0.0,
                    0.0,
                    0.0,
                    0.0,
                    0.0,
                    0.0,
                    0.0,
                    0.0,
                    0.0
                ]
            },
            "remember": {
                "shape": [
                    1,
                    28
                ],
                "array": [
                    0.0,
                    0.0,
                    0.0,
                    0.0,
                    0.0,
                    0.0,
                    0.0,
                    0.0,
                    0.0,
                    0.0,
                    0.0,
                    0.0,
                    0.0,
                    0.0,
                    0.0,
                    0.0,
                    0.0,
                    0.0,
                    0.0,
                    0.0,
                    0.0,
                    0.0,
                    0.0,
                    0.0,
                    0.0,
                    0.0,
                    0.0,
                    0.0
                ]
            },
            "layertype": "base",
            "neurons": 28,
            "activation": "tanh",
            "cost_function": "cost_error"
        },
        "specifics": {}
    },
    "hiddenlayers": {
        "l1": {
            "basics": {
                "value": {
                    "shape": [
                        1,
                        20
                    ],
                    "array": [
                        0.9731245980721872,
                        0.836661022690554,
                        0.9998101412596909,
                        -0.9868812650047702,
                        0.08588466674299888,
                        0.8393270185044976,
                        0.4564867419477556,
                        0.9995551062102597,
                        -0.9883763492157737,
                        -0.8843376463717089,
                        0.3243412248262858,
                        -0.9974536593674239,
                        0.9988874250893885,
                        0.9615880673684908,
                        -0.22200427304861373,
                        0.9953651084888544,
                        -0.2145478266636819,
                        0.3104589892560442,
                        0.033736633038162496,
                        0.9238760971344735
                    ]
                },
                "remember": {
                    "shape": [
                        1,
                        20
                    ],
                    "array": [
                        0.0,
                        0.0,
                        0.0,
                        0.0,
                        0.0,
                        0.0,
                        0.0,
                        0.0,
                        0.0,
                        0.0,
                        0.0,
                        0.0,
                        0.0,
                        0.0,
                        0.0,
                        0.0,
                        0.0,
                        0.0,
                        0.0,
                        0.0
                    ]
                },
                "layertype": "recurrent",
                "neurons": 20,
                "activation": "tanh",
                "cost_function": "cost_error"
            },
            "specifics": {
                "weights": {
                    "shape": [
                        28,
                        20
                    ],
                    "array": [
                        1.1882906602242809,
                        2.469236758625187,
                        0.12376367094108878,
                        -1.7343024603129602,
                        2.3904131231686008,
                        0.07207261304313065,
                        -0.9021594871050951,
                        2.911340973261051,
                        -3.7088768334267765,
                        0.8554717506618729,
                        -1.888830312199795,
                        -1.949857597823216,
                        3.7104399402858848,
                        -1.745767486376735,
                        -1.9631317247509719,
                        0.9023748131808899,
                        -4.825481076620544,
                        3.658207215235979,
                        -3.0000744920732973,
                        -5.2504746815314425,
                        -0.9585741794559285,
                        1.6679074388721178,
                        2.0982164367315796,
                        -0.0697504469227103,
                        -1.2779710814400929,
                        -1.7098531689417678,
                        -0.5752462610780391,
                        -2.56152520271905,
                        -3.794174517834837,
                        -5.055661488686852,
                        -0.6605165852222604,
                        -2.619705679779233,
                        -2.6863157220172544,
                        -3.2782601736807293,
                        -5.111134279844696,
                        2.1913652922391775,
                        -2.4705576165854604,
                        0.8673186842026426,
                        -2.9891331345684162,
                        2.0475163870871893,
                        -2.4157913116135616,
                        -1.4331350599796364,
                        3.986690761566884,
                        -0.896276362713683,
                        0.3588174347134679,
                        -0.1588160580355215,
                        -1.1600798353741375,
                        -2.224131182981786,
                        -2.9351578033098438,
                        0.9546177450116107,
                        1.4885942752790151,
                        -0.1493252210433029,
                        -2.045403554387966,
                        -3.39108714767823,
                        -6.302010893070956,
                        1.9059523543887362,
                        0.27899865081421626,
                        0.34337178308705335,
                        -1.7180076369271906,
                        -0.37335306986333966,
                        -2.4045519135708253,
                        -0.8814620598048485,
                        -0.852691026119011,
                        -0.29326157133486297,
                        4.5308251050189,
                        1.476430690417074,
                        -2.9916363357041833,
                        1.0419705714375482,
                        1.0316322268953813,
                        -3.2449550324492225,
                        2.2334125266572675,
                        0.2307916068025495,
                        -0.16597762606785638,
                        -1.2020048992541907,
                        0.8342575357878752,
                        -0.6335777512649964,
                        -1.0616996284190763,
                        0.340060161679964,
                        0.30670072100379575,
                        -0.36619032817225355,
                        0.48185909377582503,
                        -1.878382248226123,
                        -2.1091276936006325,
                        -0.4025899319207792,
                        4.6321944557522485,
                        1.043081229233823,
                        -3.2045925893782763,
                        -0.8494090594788435,
                        -6.718910141862627,
                        -3.823267559944763,
                        1.3678244648521318,
                        -0.07040583957507814,
                        0.09292263337942058,
                        -0.470169233282159,
                        0.5262679174479569,
                        -0.8370444667503629,
                        -1.3217556396911112,
                        -0.6923254932695696,
                        -0.5837307810811111,
                        -0.5396845536640492,
                        0.09487783731990515,
                        -4.1532854348059125,
                        -0.5374111988212137,
                        -0.1936473533774244,
                        0.628124662495019,
                        1.1035931788400226,
                        -0.5230657458273175,
                        -0.8561521259121215,
                        -0.9838857006499835,
                        -4.544724420295631,
                        0.10044258985673277,
                        -0.8506319929500474,
                        -0.25896980068805675,
                        -0.8466993751722721,
                        0.18386513329966492,
                        -0.8275439424365116,
                        -0.3848836870235598,
                        -0.5449593259818403,
                        -0.5231074068091925,
                        -0.6912177414104405,
                        0.5361298942215272,
                        -7.032982061922158,
                        0.35848407053865455,
                        -0.32059924696356795,
                        -0.42994273452256926,
                        -0.21970343322407626,
                        -1.9165595143372278,
                        -2.0003672811730424,
                        -0.6472379706778906,
                        -0.7203987354175038,
                        -2.644461142750633,
                        0.09021857158488464,
                        -0.3779526967850074,
                        0.4852782913785163,
                        -0.30127598600081235,
                        0.6407597333543977,
                        0.3473987021070801,
                        0.8728645219948066,
                        0.3151311399193262,
                        0.07587685592038904,
                        1.0968288992562414,
                        -6.295247046503921,
                        -0.155527605321423,
                        -0.9455022219678393,
                        -0.7176395342351982,
                        1.4782454472290252,
                        -1.1660873255214657,
                        -1.53346163637848,
                        -0.7008576112082248,
                        -1.4668264129153552,
                        -4.289219850255805,
                        -1.0652145509035817,
                        -0.5799558832976089,
                        0.5942829536628694,
                        0.514522719725962,
                        -0.5496618226304472,
                        0.0381899374029113,
                        0.933511102695975,
                        -0.66926669417905,
                        1.4451664203216132,
                        0.6426445195563738,
                        -2.534140568265254,
                        0.887550955741796,
                        1.6110995550233949,
                        -1.1504020425322405,
                        0.501727226340798,
                        -0.37882251379713733,
                        -0.4800360644223371,
                        0.16781421435973803,
                        -0.6646994756379192,
                        -2.74072583699871,
                        -1.2524189958538503,
                        0.12817669279703006,
                        0.11544817397767508,
                        0.6390083997247176,
                        -0.12047807445202902,
                        0.26105406076859944,
                        1.5430321343870186,
                        -0.8194075141943912,
                        1.7832530999460001,
                        0.4016433028679212,
                        -0.7523777408975137,
                        -0.13836468129064433,
                        4.987054468186479,
                        -0.15466108478572121,
                        1.5590387033261515,
                        0.6417426260505505,
                        0.18890794900801464,
                        -0.16165800622532914,
                        -0.7856317072478994,
                        -0.6568070384525119,
                        0.25633771879065037,
                        0.30419193890813984,
                        -0.8016936695938593,
                        1.6553980377707775,
                        -0.11945305756952418,
                        -0.09141420112471135,
                        1.4643010062050947,
                        0.2758190090466866,
                        0.866296416950755,
                        -0.8246689609222537,
                        0.3061764454903982,
                        0.42398482600091975,
                        1.2878932787273962,
                        0.5136760395659409,
                        0.6249857091683458,
                        1.7989693512982388,
                        0.15461638373128947,
                        -0.6521233929797253,
                        -2.14498407443402,
                        -0.5093505968901276,
                        1.9103476826762902,
                        -0.09811881815972642,
                        -0.5852972484886401,
                        1.9483953474975095,
                        0.8526544206620437,
                        0.6909306236958922,
                        2.2855656085535574,
                        0.9727520839038353,
                        -0.750275549071165,
                        -0.25834273848736505,
                        0.3254274921104949,
                        0.9099348472866666,
                        -0.14872254166775362,
                        0.7756755209531754,
                        0.14250561215810872,
                        0.4463367150357704,
                        0.13926654902402388,
                        1.7171295705792244,
                        -1.4439335406975016,
                        -0.057256334807257836,
                        2.2506252997501757,
                        -0.3605558965605653,
                        -0.7844233092810117,
                        0.5511945329448289,
                        0.8623125669055325,
                        1.4985561320632637,
                        0.6933842998222562,
                        0.3153484437219552,
                        -1.520593955440962,
                        -0.12329753726210585,
                        -0.1425379227684892,
                        -0.8533344150067472,
                        0.8296939600434134,
                        0.46463654851494357,
                        -0.09267894189812015,
                        0.12050588104231602,
                        0.5616599931116143,
                        -0.172921069128979,
                        -0.48284728313262276,
                        -0.7801740778888521,
                        1.810533269704463,
                        -0.18112002855252887,
                        0.606950326576539,
                        0.2572580041084235,
                        0.89498716813917,
                        0.9818179624650605,
                        0.1484743446605425,
                        1.6174251499752488,
                        -1.4596618739308997,
                        -0.10402480774852127,
                        -0.2089224274661928,
                        -1.3549265477269476,
                        -0.032639893972639694,
                        0.9038558756099707,
                        0.3767808175851818,
                        0.2442089257686469,
                        0.774682496194306,
                        1.0445182831328244,
                        0.6112292363221162,
                        0.133667046663142,
                        1.8461547729120524,
                        -1.5184681795214738,
                        1.1524892959446014,
                        0.2669218924953452,
                        -0.21560055007505674,
                        -0.795242435407979,
                        -0.8234283385407617,
                        0.8466916991352726,
                        0.10793197636325874,
                        0.33338503543583003,
                        0.11370538366210514,
                        -0.7887551173604417,
                        0.022490943165975136,
                        0.59771929885614,
                        0.6820288731375842,
                        -0.016941303700539506,
                        1.1027186388813048,
                        0.6326213421427638,
                        0.17104855489204884,
                        -0.6124745812539231,
                        2.005476675609651,
                        -1.9717283030867967,
                        1.7029519922995588,
                        -0.34080447910630174,
                        -2.155174110395713,
                        -0.8054144478966271,
                        -1.5853165085738012,
                        0.26410537772007864,
                        -0.8043433959182424,
                        1.2934133712574216,
                        0.25707055336580414,
                        0.5533471472498693,
                        0.8096310996966025,
                        -0.5062813430024699,
                        -0.9785638954176419,
                        -0.5390670378207696,
                        -0.12679255677622359,
                        0.8646740722298164,
                        -0.4383270464206194,
                        -1.045102253178732,
                        0.9525827610205415,
                        -0.4258540490253811,
                        -0.014795928664395526,
                        0.0377222309450341,
                        -2.1387022423954694,
                        -3.616369457320883,
                        -1.722732629574204,
                        -0.6941521064541133,
                        -0.11839671606357856,
                        -0.2773636324064385,
                        0.6444393274025683,
                        3.277039009682308,
                        0.35197833220723895,
                        0.2664100597690276,
                        -1.0224114230573027,
                        -0.16652353441864715,
                        0.050869175230245436,
                        1.1132944963391813,
                        -1.2493512254721906,
                        -0.47616176840642377,
                        -0.1454605150264556,
                        -0.33255983653575816,
                        -0.908874237734209,
                        1.5381274206486788,
                        -0.8157811254806451,
                        -3.8691177508141705,
                        -0.7261568547778268,
                        -1.412391490368774,
                        -2.845117396118719,
                        2.303989794107675,
                        0.3843175580881999,
                        2.283702944122631,
                        1.0668196134436563,
                        -0.4219552547581033,
                        -0.9315884739972453,
                        -0.12450387100572943,
                        0.34892965842662077,
                        -0.6405035624526244,
                        0.4545524233551048,
                        -0.35179273250612375,
                        -0.785122040446081,
                        0.18415076983618273,
                        -0.8573734930751065,
                        0.26211694285090625,
                        -0.4966805533230988,
                        -1.9222490735862066,
                        -0.2845755656094669,
                        -1.9631113678294638,
                        -8.44845656951468,
                        -0.09320434240851773,
                        0.25561295691172126,
                        0.36927821669748584,
                        0.11982039115607634,
                        0.33924243915794816,
                        -1.1706694919614076,
                        -0.5749189902440945,
                        0.3739068672816132,
                        0.6994102944860477,
                        0.9633203311281602,
                        0.6407622159386364,
                        -0.01078355683743452,
                        0.12275420392753439,
                        -0.4816937663088844,
                        0.5247885393264863,
                        0.6471120554533949,
                        0.3169894263630227,
                        -0.3632537234891244,
                        -2.918347012433159,
                        -9.249229530184696,
                        0.32304747056768585,
                        0.7223760575016669,
                        -0.8118950387805691,
                        -0.7823185312335542,
                        1.0598662899540157,
                        -1.1507966830023888,
                        -0.5091181713122267,
                        0.3484812956331194,
                        0.7711809015191358,
                        0.5563135610352196,
                        -0.9546708057947728,
                        0.0452954852200321,
                        0.737853040842114,
                        0.6924790812725492,
                        0.23629228551123227,
                        0.3402664341347196,
                        -0.7270525375614244,
                        -0.21208343340954233,
                        -3.783977609799117,
                        -9.342915570087383,
                        0.5251646152388971,
                        -0.7445714311665768,
                        2.1027926499348184,
                        -0.23974008564703378,
                        1.3049874922357383,
                        -0.6284843755778556,
                        -0.3904104782793395,
                        0.06893785008023261,
                        0.5172764899431886,
                        0.8664076261535782,
                        -0.8468546208671903,
                        -0.12080025127420882,
                        -0.19098228819168278,
                        -0.021913294110468287,
                        -1.2009183905153686,
                        0.3540871955093439,
                        0.8213257344822389,
                        -0.7306030152734908,
                        -4.5099468083526695,
                        -5.265193224934379,
                        -0.4741145563152035,
                        -1.1219303943224608,
                        5.348065823647946,
                        0.5546127296730214,
                        0.15587345349139475,
                        0.07505793241898231,
                        -1.0345541294049256,
                        0.18507777885873744,
                        0.690741459224695,
                        1.3693083915580218,
                        -0.99821689589638,
                        -0.0318477421246412,
                        0.24001892819840404,
                        -0.0802340769994363,
                        -0.5182297815176707,
                        1.328811222557181,
                        0.7889491139641072,
                        -1.3894470035834439,
                        -4.233843258143806,
                        -1.9727256679366154,
                        -1.5764738579301811,
                        -0.2554926600993267,
                        3.782706014764546,
                        0.6208654805510654,
                        -0.576394966816247,
                        -0.3552059876867169,
                        -1.9093841788010928,
                        4.594531257458219,
                        1.6477113797409693,
                        1.506183984633545,
                        -1.7939128872561392,
                        -0.5428425040078816,
                        2.0623938747701436,
                        0.9597778382398835,
                        0.017487860478982806,
                        4.54995867061442,
                        0.38127665624772317,
                        -1.3096701724107926,
                        -3.878530200885065,
                        -3.160979830553199,
                        -1.7913994980976056,
                        -0.25835934772517133,
                        2.6852518570769197,
                        0.05071381409823569,
                        -1.1260885073298306,
                        0.11567711864330021,
                        -1.3604548724709133,
                        5.456400203594978,
                        0.8152192585281256,
                        0.25372853884908014,
                        -4.769159291765857,
                        0.4762004307908,
                        7.616639721760216,
                        -0.141662105228626,
                        -0.06888832485393008,
                        10.954959805144508,
                        0.7350748151629714,
                        0.01364486118929853,
                        -2.9060698933282176,
                        -1.4507639778534887,
                        -0.79086019504256,
                        -0.4021020673177132,
                        0.8832691061357408,
                        0.40800941914766164,
                        -2.277081151006068,
                        0.10226953876768811,
                        0.19577905989386185,
                        -3.6539174977676088,
                        1.6912233837143096,
                        -1.0964355578291691,
                        -2.4561247166668427,
                        1.0480861743201724,
                        1.1990767035299081,
                        -1.6766750551986167,
                        -3.6324862759452308,
                        4.042731734680575,
                        5.057029152793243,
                        2.179212819675439,
                        3.0673552735634857,
                        0.40789752829996473,
                        1.0018556694599348,
                        -1.2645214872733186,
                        -0.8461438176681266,
                        0.34276342456564635,
                        -8.65230635720326,
                        1.3667526739928288,
                        -2.3404394333237266,
                        1.8944157577180414,
                        3.348276610516446,
                        0.12843190145838315,
                        -5.2223524758019835,
                        5.062586982921533,
                        2.477225885322228,
                        0.32465291508177385,
                        -1.1134998192206282,
                        4.414075501639065,
                        2.826984127660709,
                        3.5012864103370998,
                        6.052881467742358,
                        3.324597138057133,
                        2.081362421219131,
                        -0.8060616998465643,
                        2.390576468517407,
                        0.7513479531635416,
                        -1.0739279682574203,
                        -1.0281649520168235,
                        -1.3913688709010659,
                        -0.21604869457840897,
                        1.34680262621256,
                        1.9686742844767298,
                        -2.8846846140301543,
                        2.0886165805026073,
                        2.291520737687906,
                        0.7561763999393754,
                        -0.5206543274087135,
                        0.6338082072152685,
                        0.5381374168307076,
                        0.08079003462680656,
                        2.3295819073772823,
                        0.5405469675852476,
                        0.6091441196755512,
                        0.20571407136634162,
                        -0.527131676598435,
                        0.8381215470938057,
                        -0.6656134953298952,
                        0.4282793496422686,
                        -0.154062261227881,
                        0.3031415948502989,
                        0.2019836888586065,
                        -0.2687903741867563,
                        -0.6304698642908145,
                        0.2718489480584746,
                        1.39807907671296,
                        1.7113792637808427,
                        -1.3875135717735219,
                        0.7545700285981939,
                        1.6916578668032107,
                        -0.23914665474327243,
                        0.18995226534593004,
                        0.6238616865816207
                    ]
                },
                "hidden": {
                    "shape": [
                        20,
                        20
                    ],
                    "array": [
                        0.8096947376666843,
                        0.21514163844007295,
                        1.0264897347862842,
                        -0.26880023439113376,
                        0.3138046558986886,
                        -0.6871905932140595,
                        0.5477149753134808,
                        -0.1465539245901364,
                        -0.508450363384576,
                        -0.7550213615770484,
                        -0.8331073187039331,
                        0.762370902476018,
                        0.43108791295620785,
                        0.6243369672201284,
                        -0.7414801364286662,
                        0.547605581741236,
                        -0.47603958998000784,
                        0.2795406872560143,
                        -0.4225477179254143,
                        -0.3083702325244339,
                        0.4053570122060838,
                        -0.18342462024133344,
                        -0.06414692523239873,
                        -0.29594915981468306,
                        0.21006896603789155,
                        1.1517989666493254,
                        0.1357361216703483,
                        -0.31494078980304924,
                        -0.08104145566405938,
                        -0.36158342886805384,
                        0.363023963722699,
                        -0.477657100897428,
                        -0.6329224128374045,
                        -0.1612692168057799,
                        0.07953589182183698,
                        0.1319808681678818,
                        -0.162631256809489,
                        0.905399236487507,
                        0.2818212430670444,
                        0.0010382249449626003,
                        -0.49185103575447087,
                        -0.6491460028524001,
                        0.9294456066794904,
                        0.24476364231277842,
                        -0.26723344059058285,
                        0.3861614314865271,
                        0.7040796033351829,
                        0.7050749728154507,
                        -0.7518430258096049,
                        0.6116800757030277,
                        0.369720779035918,
                        0.08790742809166979,
                        0.015497689325164073,
                        0.3620867380024796,
                        -1.0738429143408452,
                        -0.5918595669273731,
                        0.1674965489917232,
                        -0.25503445820417303,
                        -0.43173186269259767,
                        0.8536093603787485,
                        -0.43368933446392827,
                        -0.4168456712060328,
                        -0.787435492752522,
                        -0.04141813087371038,
                        -0.38416122385950513,
                        -0.7530756396664484,
                        0.6592726620205224,
                        0.3607138792414938,
                        0.21148736928586098,
                        -0.46342517751011897,
                        -0.2680143033328091,
                        -0.06772173081456603,
                        0.11867729412113137,
                        0.05721850295401046,
                        -1.1050569811560762,
                        -0.07581135932348987,
                        -0.7035990925480614,
                        -0.0356391878641249,
                        0.037836872128484245,
                        -0.3463534699787653,
                        0.14013174782275303,
                        0.09856185312024912,
                        -0.22089766650132114,
                        -0.3592540541643914,
                        -0.031097115724629344,
                        0.3063038664738241,
                        -0.05524101937941074,
                        0.06117239526284361,
                        -0.5892662085563377,
                        -1.2111794673629592,
                        0.2241846819303122,
                        -0.2653283346084248,
                        -0.0951411229644041,
                        -0.18894517819362083,
                        0.1875560135134286,
                        0.6281362382646424,
                        0.047831541546326156,
                        0.853882842705691,
                        0.27481816004154624,
                        -0.0806430009817507,
                        0.5561182867717428,
                        -0.36609929123384866,
                        0.17854554872817938,
                        -0.7013907972472114,
                        0.13686646140543762,
                        -0.11186599749461221,
                        0.19721296689654394,
                        -0.15986111694597893,
                        -0.23949392708338624,
                        -0.008750937713617025,
                        0.10416876876820189,
                        -0.16418690734015892,
                        -0.25510037278406056,
                        0.5644366833736604,
                        0.23121998605717664,
                        -0.03442628284625343,
                        -0.3621901830009035,
                        -0.17953187262858702,
                        0.0085059530560279,
                        -0.266838343560181,
                        0.7325999346629767,
                        0.8059622652457247,
                        0.16072422202516512,
                        0.2305518605954892,
                        -1.4663497059149122,
                        -1.0109447525747894,
                        -0.16445192853135923,
                        0.42851995717770863,
                        1.260982744695013,
                        0.15932122081144562,
                        0.1452171781151403,
                        -0.561244705870095,
                        -0.5699209951851197,
                        0.3700271806622758,
                        0.23532418772430302,
                        -0.041113629874415275,
                        -0.24080801908846122,
                        0.5391139282130617,
                        -0.2623928480427161,
                        0.08981707681117895,
                        -0.272370529040931,
                        0.6263140640238424,
                        0.347731859040102,
                        -0.5201418240514553,
                        -0.6421243153963148,
                        0.24136393576814097,
                        0.9588219006202904,
                        0.5109774931509735,
                        0.11404324221735751,
                        0.6182604326361271,
                        0.3621234821183833,
                        0.012259343995983947,
                        1.642837886760323,
                        1.3840216621625943,
                        0.30519839247618175,
                        0.2549919408441719,
                        -0.9591930310684795,
                        0.17629499935949924,
                        0.01834891907722183,
                        -0.4349055607810762,
                        -0.12432104388388074,
                        0.6613746787363685,
                        0.6250559930294349,
                        0.02234980134687986,
                        -0.23803164330788484,
                        0.30005478016722964,
                        -0.5797779816097239,
                        -0.44138796980734685,
                        -0.0667816339082237,
                        0.30299257389337086,
                        0.15851073219796197,
                        0.4771923824640868,
                        -0.1654378163994698,
                        -0.25257983641713555,
                        0.4815430308027814,
                        -0.2791938751649356,
                        0.311933267373391,
                        -0.25734147492099113,
                        -0.39522471032990947,
                        -0.02150527094547141,
                        -0.9696355618339925,
                        0.18624100063640703,
                        -1.1622810128663223,
                        -0.41264952235007657,
                        -0.017471239572749264,
                        0.7129508338489794,
                        -0.034395711951986735,
                        0.08413531686264239,
                        0.12764129058540521,
                        0.15162465577512857,
                        -0.1066028901190694,
                        0.3661758601883505,
                        0.96374848666204,
                        -0.20703532788093454,
                        0.3100874340566507,
                        -0.40256325659035863,
                        -0.24992273309564678,
                        0.4127325464426724,
                        -0.283039079339927,
                        0.09514990689549485,
                        0.4334116738090142,
                        -0.6267062016777808,
                        -0.07280277006188254,
                        -0.2291104582768685,
                        -0.03886184682467292,
                        0.5217271174207289,
                        0.3945822007652798,
                        -1.5312653849299949,
                        0.4914799699482053,
                        0.13006224492245694,
                        -0.475133310383838,
                        -0.5037721298035515,
                        -0.7934748301926465,
                        0.5171721869178985,
                        0.4006421170244203,
                        -0.0338125831376824,
                        -0.4575842209452025,
                        -1.0279504077211703,
                        0.25302960687054443,
                        0.4824024641924013,
                        0.45789790440229505,
                        0.03122442670935839,
                        -0.10163027678951772,
                        0.370816159079206,
                        -0.4433111794831876,
                        -0.2109092907885468,
                        0.26262634427082077,
                        0.038245581818327684,
                        -0.20361460499028075,
                        -0.4584875650654761,
                        -0.40420473105386695,
                        0.1335056549019213,
                        0.04459512779312064,
                        1.3087445867950842,
                        -0.5750386686347398,
                        0.05273905830074954,
                        -1.0245498291202744,
                        0.9632507140174569,
                        0.7351016234511731,
                        0.10847593932651411,
                        1.144456355841267,
                        0.3019929931016899,
                        0.3292237896678282,
                        0.1185342066546568,
                        -0.7421535587039344,
                        0.27644921964473435,
                        -0.22263653276444678,
                        0.797796030142371,
                        -0.21945695484917338,
                        -0.3284907960437232,
                        0.31366106638049035,
                        -0.6005268726245597,
                        -0.18472169113722453,
                        0.6694901927620349,
                        0.7342718068843913,
                        0.24656919938157917,
                        0.28949645479092023,
                        0.3052709751078925,
                        -0.1602726129316488,
                        0.022254006296624773,
                        0.48060571671464747,
                        -0.282408283084855,
                        -0.35392968133032365,
                        -0.20376576503792293,
                        0.007413483756401017,
                        0.0017885131842502056,
                        0.4980456740889159,
                        0.416862257837192,
                        -0.6210888755148919,
                        0.5984073710195894,
                        -0.6060203951050119,
                        -0.4446294858968844,
                        0.623424059110395,
                        -0.3521336297950862,
                        0.5865002345568969,
                        1.120272787127874,
                        -0.7778263469653182,
                        0.24842608825954882,
                        0.18370194101745863,
                        0.5894898144254057,
                        0.3574342560604996,
                        -0.5402761009189687,
                        -0.7035169678389007,
                        -0.1897169149244478,
                        -0.05470522119468224,
                        -0.6188255270860124,
                        0.7281276496393785,
                        0.35152971475042555,
                        0.4786058088406869,
                        1.1333989489094138,
                        0.5279444319859106,
                        -0.054429058716326834,
                        0.12854213623565425,
                        -0.43750728327232086,
                        -0.051581233893931905,
                        -1.0011973592763541,
                        0.06258125928801415,
                        -0.03903410785279482,
                        -0.5368009747862229,
                        -0.45384663514508655,
                        0.1303471118580974,
                        0.21378363354776006,
                        0.14543393086998874,
                        -0.3982030705573431,
                        0.45707368459570274,
                        0.04696772529519125,
                        -1.3652439604388742,
                        0.32353116275298355,
                        0.1792646866529971,
                        -0.853528557280097,
                        0.13149867789237374,
                        0.5969911896863846,
                        -0.5964741330244296,
                        0.26310655989271947,
                        -0.3314973464096173,
                        -0.4583275430678549,
                        0.23710578059779752,
                        0.5996525907163042,
                        0.7378392974385024,
                        0.02649551571117629,
                        0.30513123495426947,
                        0.12445328949445084,
                        -0.5321273777132923,
                        -0.2636764340646376,
                        0.29096603156016565,
                        -0.7462282455210838,
                        0.545448698550615,
                        0.9274933901499838,
                        0.26291689596223616,
                        -0.3151380921139439,
                        0.4220584297125376,
                        -0.4056949977182931,
                        -0.35317334711291154,
                        -0.662147739928664,
                        0.838722356114577,
                        -0.44262290527482695,
                        -0.6206432276019773,
                        0.20953731890757502,
                        -0.036024928848879034,
                        0.010607353173961756,
                        -0.14831113381854483,
                        0.0374076341009717,
                        -0.5267880726589931,
                        0.30966379426563767,
                        -0.4098189140224732,
                        -0.36233308523384056,
                        -0.04869083135989927,
                        0.5328448568516423,
                        -0.3539412353124044,
                        -0.15720430516977318,
                        0.3542356494899806,
                        0.2559126833689301,
                        -0.3038023005576605,
                        -0.06558588026039444,
                        0.11137975119326166,
                        0.031693873215087875,
                        -0.4633176790753722,
                        -0.41487344500355283,
                        0.2975930869769597,
                        0.03212185898688,
                        -0.40066459661358456,
                        -0.000552223939467451,
                        -0.6882143112906383,
                        0.1733810217154535,
                        -0.4336393736399885,
                        -0.416488298329733,
                        0.5348654630316025,
                        0.1938700753219671,
                        1.1379609791402912,
                        1.126360052680744,
                        0.31479027805809406,
                        0.6824810288369921,
                        0.14005278818434957,
                        -0.4886204722669933,
                        1.6098723412305287,
                        -1.2078467910502522,
                        -0.10802434194724458,
                        -0.18445244060977994,
                        -1.0459508093356116,
                        -0.068441275184667,
                        -2.181373021104668,
                        -0.05301075762210773,
                        -0.2350693138163894,
                        0.052970460498431265,
                        -0.04016838759906083,
                        -0.6910952353949738,
                        -0.07907543016093821,
                        0.5950802641929182,
                        -0.36935793775206716,
                        -1.3611745232657555,
                        -0.536682208522,
                        -0.9530243807244123,
                        0.27791430678486495,
                        -0.34074259117504646,
                        0.0479404189158259,
                        0.22339811955724603,
                        -0.4085825383728448,
                        -0.8182499068328422,
                        0.49760534936924666,
                        0.11679860622423628
                    ]
                },
                "bias": {
                    "shape": [
                        1,
                        20
                    ],
                    "array": [
                        1.9707686672561922,
                        0.253928651419193,
                        1.7150656430662623,
                        -0.8985281167700238,
                        0.6971254794331576,
                        -0.5558505260113268,
                        0.4573206933000914,
                        2.151103356726658,
                        -1.2349205440471798,
                        0.051689489883419905,
                        1.1417075062199338,
                        -1.1890585260661442,
                        1.7964595266261478,
                        -0.22211148089410174,
                        -0.15926129013995854,
                        0.6077277400616932,
                        0.19249088262511502,
                        -0.9428103048717292,
                        -0.29978446076199283,
                        0.008481919895778579
                    ]
                }
            }
        },
        "l2": {
            "basics": {
                "value": {
                    "shape": [
                        1,
                        20
                    ],
                    "array": [
                        -0.9999949679069815,
                        -0.9999999954125376,
                        0.9706557172874403,
                        0.9999999999910217,
                        0.9999884114445031,
                        0.9937863172923249,
                        -0.9999999999204282,
                        -0.6750758655727238,
                        0.9999933981154535,
                        0.9999684533771167,
                        0.9999999090145627,
                        -0.9995599767961627,
                        -0.9384063620618149,
                        0.9994518277118029,
                        -0.9999959298247472,
                        -0.9999999998700024,
                        0.9999999986769068,
                        0.9999999176084765,
                        -0.8372700111560046,
                        -0.9998688124416135
                    ]
                },
                "remember": {
                    "shape": [
                        1,
                        20
                    ],
                    "array": [
                        0.0,
                        0.0,
                        0.0,
                        0.0,
                        0.0,
                        0.0,
                        0.0,
                        0.0,
                        0.0,
                        0.0,
                        0.0,
                        0.0,
                        0.0,
                        0.0,
                        0.0,
                        0.0,
                        0.0,
                        0.0,
                        0.0,
                        0.0
                    ]
                },
                "layertype": "recurrent",
                "neurons": 20,
                "activation": "tanh",
                "cost_function": "cost_error"
            },
            "specifics": {
                "weights": {
                    "shape": [
                        20,
                        20
                    ],
                    "array": [
                        -0.9252184968281943,
                        0.3115474308823027,
                        0.26414549113537245,
                        0.8926077281464365,
                        0.7178663840425203,
                        0.18136759119889595,
                        0.525751029386794,
                        0.8246953179317169,
                        0.9578139629327954,
                        -0.7313766802525092,
                        0.44397758860018294,
                        0.42527337675062316,
                        0.29708029890705917,
                        -0.14074944946223442,
                        -0.8118824558557317,
                        -0.767852852640758,
                        0.2069757517000763,
                        0.8116153871510696,
                        0.6123071127293498,
                        -0.1490923889108804,
                        -0.7833937782144889,
                        -0.41028918954616567,
                        0.7650417667041971,
                        -1.5572149866517735,
                        -1.0055635520689334,
                        1.6597808286117997,
                        -2.131910453205409,
                        1.5736162471618702,
                        -0.1931497933704463,
                        0.05750988134928581,
                        0.7783503350399772,
                        -1.6838518030680505,
                        0.4346494159080507,
                        -0.16150228999374805,
                        -0.159769798477604,
                        0.13402086446797987,
                        1.0885116053338038,
                        -0.07061876577261836,
                        0.5815738315563976,
                        -0.7542235563841125,
                        -0.866154420331631,
                        -0.3990079059187108,
                        -1.1138263979393777,
                        -0.11051270946082642,
                        -0.23572752471705816,
                        0.1497354895858218,
                        -0.47832987086963863,
                        0.24553482081734335,
                        0.06900194513063639,
                        -0.5358454831880499,
                        -0.03068203911870465,
                        -0.41928684164725055,
                        0.43724730209564056,
                        0.43648243101295897,
                        -0.05443070513886669,
                        -0.8298515472258663,
                        -0.7853525805177989,
                        0.27112160270470786,
                        -0.6895978928569894,
                        -1.1376166210097642,
                        0.7970506265401736,
                        0.6514347558270476,
                        0.301551529918275,
                        -0.1211159088142692,
                        -0.570853921304123,
                        -0.7562358686059982,
                        -0.006041494387632835,
                        0.3940319305444724,
                        -0.8260617974622966,
                        -0.1816988989320775,
                        -0.2187134148968557,
                        0.22412546928953425,
                        0.5641207699971028,
                        -0.7741417251957505,
                        -0.40852289940602715,
                        -0.8045095542957215,
                        0.27387975336678816,
                        -1.3707300768743567,
                        0.5999511398624221,
                        -0.7056338526066369,
                        0.19538937583996047,
                        -0.511861942999361,
                        0.3241696566798459,
                        0.8229608334449993,
                        -0.15741592375905453,
                        -0.3734235089948604,
                        -0.2983816967040966,
                        1.3828362041620093,
                        0.3708260163665364,
                        0.4803402384217811,
                        -0.37694570663353727,
                        0.17847145052083846,
                        0.8199427423520512,
                        0.5022828520086601,
                        -0.027482706088600505,
                        -0.6228313248073923,
                        1.189533862432063,
                        -0.6024381895271141,
                        1.0338554836733547,
                        -0.5932611744338254,
                        1.7330934315271935,
                        0.519830784634099,
                        -1.1944670435461606,
                        0.46701652638107116,
                        -0.7082163714151579,
                        0.16027992711846856,
                        -0.3633362429554465,
                        -0.5968023356547117,
                        -0.7177563862164257,
                        -0.2317324428284226,
                        0.4224654578326565,
                        0.02049210175397119,
                        -0.8179724240021032,
                        -0.43502871991314596,
                        -0.42912624576064456,
                        -0.27270884081008995,
                        -0.4139368836969007,
                        -0.20879706117839292,
                        0.059805197557564166,
                        -0.45960557488882686,
                        -0.02635524661455868,
                        -0.15068138760566716,
                        -0.03195503107092268,
                        0.8411691032182763,
                        -1.3315203704957916,
                        1.1327101442728127,
                        -0.4109573866339658,
                        0.5878830787976752,
                        -0.26083832550249303,
                        0.37632005773976795,
                        -0.47660127761554993,
                        -0.194987868310801,
                        -0.04472313465878597,
                        -0.2620109136436898,
                        0.9937374202714804,
                        -0.4145729850139511,
                        0.30920345586217113,
                        0.5003333725902175,
                        -0.1967935221097935,
                        -0.41481654056464495,
                        1.2858485000856583,
                        0.40797041648827675,
                        -0.30919419555596883,
                        0.458629044153788,
                        -0.16995962770138393,
                        0.33408186280855495,
                        -1.3943652270553857,
                        -1.0386014477367624,
                        0.7335479255540768,
                        0.4400728545185151,
                        -0.3387614865074816,
                        -1.1346119514071005,
                        -0.7162220890773819,
                        -0.1671289080490509,
                        -0.8220646975199252,
                        -1.0344238644072279,
                        0.2353380223989644,
                        -0.6474411449067108,
                        -0.32846535568463153,
                        1.4409648533002375,
                        -0.2000507862173012,
                        -0.06218786827139812,
                        0.22562953082133674,
                        -0.9129576910118975,
                        0.20913651901249133,
                        -0.5596783413887453,
                        -0.18851864468890311,
                        -1.4550410641843798,
                        -0.5152701066521141,
                        -0.7719438533447762,
                        -0.2207369794636897,
                        0.21740933732151044,
                        -0.34372247603220396,
                        -0.9601690836203822,
                        -0.44271188529555017,
                        0.20782629133745922,
                        -0.7189453452137247,
                        0.45455821252207856,
                        0.5607156878466576,
                        -0.47397559972712006,
                        0.32473430795992625,
                        0.6151480005346127,
                        -0.04459983156788426,
                        0.6910027661541189,
                        -0.3223174619013582,
                        0.498622138614123,
                        -0.13993317875594027,
                        -0.7859659109362628,
                        -0.8490858206143184,
                        -0.5814443935863136,
                        -0.46245532094707775,
                        -1.1649066313272491,
                        0.14799418250526264,
                        0.47423796355165054,
                        0.4713558471137691,
                        0.15105918968433857,
                        0.11930944806646054,
                        -0.11507180896097038,
                        0.33640960285144056,
                        -1.2899581434168534,
                        -0.7742390586671682,
                        -0.2437468735356048,
                        -0.7830989766872285,
                        1.213784774549938,
                        -0.34438854731780594,
                        0.4802743007952738,
                        -1.1909048800973774,
                        0.7645977119437807,
                        0.2023383663970687,
                        1.343650146125439,
                        -0.0099570114749065,
                        -0.1283067459434162,
                        -0.0738995067600462,
                        2.190365170593871,
                        -0.5810881268638689,
                        -0.27235195488647923,
                        -0.3428060105311394,
                        0.6043595780345377,
                        -0.6874684297140546,
                        0.3769886538080475,
                        1.2071131450866464,
                        2.1708201398728724,
                        -0.7092215407056509,
                        -0.47469555677146397,
                        1.0413378860998168,
                        -0.4125664762565642,
                        -0.6783809571645986,
                        -0.3490769317196906,
                        0.4829332837819141,
                        -0.12399597188636532,
                        -1.6466719330578812,
                        -2.5318601339959104,
                        -0.3021441410056883,
                        0.12363089673406741,
                        1.0399911578612993,
                        0.1516227203706448,
                        -2.168979469828617,
                        -0.251885698366147,
                        1.584971427200868,
                        0.1661577052248659,
                        0.5033810624830388,
                        -0.6907759932589456,
                        0.3232382544455751,
                        -0.03258441016340689,
                        0.4861851602778857,
                        0.16893715096284745,
                        -0.29994612247394514,
                        -0.8619557064061064,
                        -1.0916951691904966,
                        -1.003426754799866,
                        1.1562903443781043,
                        0.3206369721689262,
                        -0.7139899575411218,
                        0.5819306489372643,
                        -0.7137986143457411,
                        -0.7707043037965566,
                        -0.21981585567601725,
                        -0.19490687894826003,
                        -0.5807384426730794,
                        0.26192947649222703,
                        0.19579919966372608,
                        0.1540991545904214,
                        -1.3174739066492402,
                        0.20092554004998328,
                        -0.3274068376482203,
                        0.0840673770245184,
                        0.798289391328998,
                        -0.9812739873590006,
                        -0.06750258719530296,
                        -0.4479517975569513,
                        -1.1226740961261152,
                        0.44177189613277723,
                        0.5574638396040137,
                        -0.48576116300326466,
                        0.5877095888391891,
                        -0.4792438269866276,
                        0.10330478385212474,
                        0.6334677521276043,
                        0.5778763285868711,
                        0.4437763509945269,
                        0.5414182511957686,
                        -0.4976808961170564,
                        0.6923741462269074,
                        -0.039902910983920264,
                        -0.349637745899965,
                        -0.43242983343496877,
                        -0.13237978033348086,
                        -0.3905769057306101,
                        -0.9113676446715874,
                        -0.06869603832464967,
                        0.3567347574335042,
                        0.04902614485004084,
                        0.03567946595995278,
                        -0.07072827013007216,
                        0.22963941656565595,
                        -0.7972873241570078,
                        1.4730289497387383,
                        -0.9086579228376128,
                        1.0241679171583082,
                        -0.48591059168504147,
                        -0.15368144289893879,
                        1.0560646750176155,
                        -0.3048496740701748,
                        1.929905364062807,
                        0.020047438845923693,
                        -0.8699790638068193,
                        -1.4907286563251774,
                        -1.0046223036639546,
                        -1.343013348888333,
                        0.7049892331427191,
                        0.5542580309930186,
                        0.8793919519186167,
                        -1.5286325283006224,
                        -0.3606077519259072,
                        -0.37993016142946623,
                        0.05449106139691769,
                        -0.38652215007996726,
                        -0.06098689722862388,
                        0.3884107031773043,
                        -0.8390703922852519,
                        -0.7487485943519281,
                        0.057113087825713255,
                        -0.7170568738272447,
                        0.42317273928723714,
                        -1.001085275136181,
                        0.3643396083389874,
                        -1.2281051564505248,
                        -0.29571020864377817,
                        -1.4850121491952692,
                        -0.39908435908752865,
                        0.1856088855389869,
                        0.18549957815062212,
                        -0.7531134751375154,
                        -0.5769324981438689,
                        0.6881773250050117,
                        -0.9351795105762968,
                        -0.705404733384743,
                        0.1844564807705093,
                        0.39843546805442126,
                        -0.15120164824739518,
                        -0.04333806795110403,
                        0.17711159646947924,
                        -0.5034099939198731,
                        0.355129613881981,
                        -1.4323262099651048,
                        -0.42994929170317014,
                        0.25978228897272565,
                        0.4250594924570437,
                        -1.0445040707493949,
                        -0.5840637802434956,
                        -0.5651627712329965,
                        -0.24227585841833732,
                        -1.2824133301541045,
                        -1.1707734601059947,
                        0.12942588233662852,
                        0.6421127776397146,
                        -0.38214367673741745,
                        -0.7702714202230097,
                        -0.17966755786117675,
                        -0.7315673839340482,
                        -0.438143478592306,
                        -0.12229659789401529,
                        -0.5685544574770618,
                        1.0416636999666007,
                        1.4562427723664106,
                        1.4085442217672675,
                        -1.0222258852664632,
                        -0.12006277138020835,
                        0.6160791124799231,
                        -0.040908899967741524,
                        -0.16471758709096285,
                        -0.17097313354352228,
                        -0.059756119038057304,
                        0.21201161686797426,
                        1.1904636962085946,
                        -1.2674800830849975,
                        -0.8767771546395937,
                        0.6785329935287446,
                        2.139427220265088,
                        0.5670153275997514,
                        -0.5843020284265809,
                        -0.06784575414853258,
                        1.4468169893928085,
                        -1.430257798286486,
                        1.991047161011833,
                        2.18353473083578,
                        0.24286068310606534,
                        -1.4769890813358766,
                        0.3453446594285888,
                        -0.003860198433121612,
                        0.7570551639070765,
                        0.0749233042237945,
                        0.48809201064601554,
                        0.9178134057639766,
                        2.2216324298467547,
                        0.6062560658332758,
                        0.47377611265003,
                        0.6917159605537314,
                        -0.04200542823144103,
                        -0.47192480558491173
                    ]
                },
                "hidden": {
                    "shape": [
                        20,
                        20
                    ],
                    "array": [
                        -0.3704601053922517,
                        -0.001771393527051756,
                        -0.232268022726981,
                        -1.1109097246126554,
                        -0.37157740404690404,
                        0.37224157366429655,
                        0.32169950941287706,
                        -0.0881956859510522,
                        -0.08397024336578357,
                        0.5869711174261348,
                        0.2640911546980735,
                        0.06261430105708571,
                        0.5098333225626587,
                        1.031570390940232,
                        1.1677988612132708,
                        1.2871054986584503,
                        -0.484771692083887,
                        -0.49835185224405015,
                        -0.11374599899595761,
                        -0.874307222355891,
                        -0.04854368481643481,
                        0.7843974177154159,
                        -0.10018327184276068,
                        -1.5966468092089612,
                        0.411257973834112,
                        0.049823207481609316,
                        1.1144530785359832,
                        0.2996474641000254,
                        -0.18216695718554302,
                        0.002448580079696075,
                        0.26732196494809146,
                        1.0796918557824366,
                        -1.0451759991429108,
                        0.45034190619781356,
                        -0.364552098838797,
                        0.1114839756192363,
                        0.6805251115002073,
                        1.1241373547468625,
                        0.6337560980037338,
                        0.8379592203979079,
                        0.4797639331042454,
                        -0.5899983806328192,
                        2.788564887122438,
                        0.18016870963298898,
                        0.22895509216547322,
                        -0.34538958109132856,
                        -0.09912045492511201,
                        -0.22078899825561665,
                        1.0595048958154092,
                        1.1716646579035468,
                        0.4120190699321419,
                        -0.6786533938822026,
                        0.7918148836099546,
                        -0.5757123452404429,
                        -0.20589175510324764,
                        -0.13191677933477258,
                        0.71126544469221,
                        -0.1659641056487534,
                        1.2104577947994077,
                        -0.07253005259316467,
                        -1.9493302795462943,
                        -1.3616971138581178,
                        -0.7020093253581147,
                        0.6780415015039319,
                        1.040556499748325,
                        -0.49079420677607277,
                        -1.278027903641938,
                        -0.7015692165290487,
                        1.6375573873045346,
                        1.4251864841420738,
                        0.3786034410189654,
                        0.1482371409556652,
                        0.7062395124676225,
                        0.6068257781012607,
                        -0.9948762805164579,
                        -0.8992628706086914,
                        0.510487043667367,
                        -0.5652825142575425,
                        0.004798601182569402,
                        0.25241764282287305,
                        -0.350940111512576,
                        0.34382581126997086,
                        0.6347717671450045,
                        0.7167991824202945,
                        1.0594595036184302,
                        0.3585208446337951,
                        0.22321100197795513,
                        0.8748272469075721,
                        -0.13780839473162954,
                        -0.15246587669587144,
                        0.4215436804664453,
                        0.5593905119505832,
                        0.24689464882771933,
                        0.3421633291408784,
                        -0.17581185160895135,
                        0.09144881874802777,
                        0.3980808263656483,
                        0.5487890628913127,
                        -0.05579883040808034,
                        -1.5256111631000266,
                        -0.31864726487602635,
                        0.21037325530025175,
                        0.6450694475339372,
                        0.7467859262215313,
                        0.1536242225578749,
                        0.5801647748433802,
                        0.610295742219854,
                        -0.03541365467976089,
                        -0.2961439818582889,
                        -0.2673687420339091,
                        0.7673109196329175,
                        -0.2664085902248864,
                        0.5884967724680135,
                        -0.2863930384431763,
                        -0.0976666031286661,
                        0.22945127534492143,
                        -0.2074280030654743,
                        0.7255381318837907,
                        1.3341575183373517,
                        -0.9274545061039953,
                        -0.31653766316883786,
                        0.7564616173159278,
                        -0.4236825569762276,
                        -0.6626200093293039,
                        -0.5250808051346866,
                        0.3655071526618286,
                        0.7138709180800903,
                        0.08101250073606148,
                        -0.9548688206517499,
                        -1.3681956270941469,
                        0.0063205866602528485,
                        0.12812295162237045,
                        -0.35521074236163896,
                        -0.7623794742206766,
                        0.033593435359721396,
                        0.7197331523993326,
                        0.6676688210416226,
                        -0.11967842981124091,
                        -0.8419765536669015,
                        0.4431893126611984,
                        0.6870397287431493,
                        -0.028244453792996893,
                        -0.0710732464125149,
                        -0.38072531610180255,
                        1.2113329289062393,
                        0.1733524818061653,
                        0.11045240459031797,
                        -0.2702194197827958,
                        0.4169142944380443,
                        -0.3215693015894684,
                        0.1666821940483063,
                        -0.15536211272582764,
                        -0.09251049246292667,
                        -0.04555949202526047,
                        -0.34870264112038074,
                        0.6968499181982976,
                        0.0075768263770627856,
                        0.22628455733631048,
                        -0.4213170751918298,
                        -0.4810409315269528,
                        -0.5979899374924087,
                        0.0413579750865449,
                        -0.6091752129113884,
                        1.0550670919590708,
                        -0.046384763283451785,
                        0.6755352765587692,
                        -0.1391453987620263,
                        0.7339533805972,
                        0.22896904109479221,
                        -0.7291308782882114,
                        0.5870879746575405,
                        -0.3270888989052055,
                        0.7786814694701597,
                        -0.27290419565724305,
                        -0.22132814846197568,
                        -0.9973610725038845,
                        0.56438510678712,
                        0.4173835406324454,
                        0.48363194963670103,
                        -0.12791736407266904,
                        0.09707916593010346,
                        -0.989523949433273,
                        0.7159340538035631,
                        -1.170172877320049,
                        -1.0641738791359205,
                        -0.35820393803642187,
                        0.3622366668150615,
                        -0.20410972482901146,
                        -0.48176791199836716,
                        1.6104897988863542,
                        0.8248192484982442,
                        -0.8456568960993153,
                        -0.591637461245886,
                        -0.16183317811716993,
                        -0.019317838011087274,
                        0.2201498891403753,
                        -0.26487373457380187,
                        0.060259152775679975,
                        -0.1636715927177086,
                        -0.45440022468152114,
                        0.46402195420749676,
                        -0.028521760097588694,
                        0.11373360723427264,
                        0.6312668566949514,
                        0.6703408136468995,
                        -1.3676718302091764,
                        -0.12887059204043352,
                        -0.2854124898525602,
                        -0.8324705401161834,
                        0.1471149911441802,
                        1.5101257592106614,
                        -0.1366037128346782,
                        -3.2744365097587567,
                        -0.6515741230251646,
                        -1.9016103197676182,
                        0.07492799580189094,
                        -0.07612573324382077,
                        -0.649442147015616,
                        -0.41624890220115474,
                        -0.2675829842171565,
                        -0.07144404181810167,
                        1.0845038413561,
                        -0.06301191425122149,
                        -0.400975099203531,
                        0.06232946213654158,
                        0.7418040906617858,
                        0.8837627950910771,
                        -0.24743296408910453,
                        -0.3429378523431158,
                        0.15793720229854175,
                        -0.6056802777226692,
                        -0.2123469087364515,
                        -0.49799690260457946,
                        -0.1683981511423891,
                        -0.17729578013723085,
                        -0.20830030747879621,
                        -0.5910656009957448,
                        -0.8336897760431288,
                        0.9838357106148155,
                        0.5031569152119402,
                        0.44442306808841964,
                        -0.8477660133700632,
                        -0.20845810972988904,
                        0.002435634413252702,
                        0.06668568684380805,
                        -0.4326186834399163,
                        0.2379779296247178,
                        -0.11659836414411648,
                        1.1404030495497404,
                        -0.8776685330742171,
                        -2.564503880330057,
                        0.014591340992836823,
                        1.088812270289367,
                        0.15410825623524463,
                        0.5596879426064357,
                        -0.6455076951387153,
                        0.9580180312180251,
                        -0.23914822836470023,
                        0.2563658325622114,
                        -0.3521351753930749,
                        1.3590726833377742,
                        0.7101249174517845,
                        0.7297161694784657,
                        -0.6494235151783857,
                        0.10638094335899856,
                        0.14567896544373388,
                        -1.1084394367601633,
                        -0.09207469037013796,
                        0.8900886390706925,
                        0.5669591914893739,
                        -0.5043526296319037,
                        0.5854747606911773,
                        0.005049157134392671,
                        0.11996019160682633,
                        0.31983981929429783,
                        0.513723199895101,
                        1.9494956923828637,
                        -0.09290251509196129,
                        -0.0382186511828953,
                        -0.14961408797933773,
                        1.8222322543275578,
                        0.5055503474147871,
                        -0.6201727327130001,
                        -0.6475751640039076,
                        -0.036488696752295685,
                        -0.8201247409916284,
                        0.7732053422464729,
                        0.8016632078051473,
                        -1.2956678544747051,
                        -1.271581499202471,
                        -0.05488812294899734,
                        1.1923712759367828,
                        -0.9758576847891409,
                        -0.3199565728030997,
                        -0.13570962103650022,
                        -0.054790516884022145,
                        -1.634861885515549,
                        -0.3098409416532127,
                        0.6455570460093711,
                        0.9471341195076621,
                        1.831601042679365,
                        0.2542622516788816,
                        1.0341067893903773,
                        -2.236567247583325,
                        -1.0632972822406226,
                        -0.13185565686076245,
                        0.7159519487482987,
                        0.7868980543237303,
                        -0.24932994459558633,
                        -0.929378462597893,
                        -0.5960231692981994,
                        0.19148944250500588,
                        0.33433305197308066,
                        0.662383150843021,
                        1.5481530121319942,
                        1.874925629544696,
                        -1.14678513695039,
                        0.5829968143251556,
                        0.30293216625570807,
                        -0.8178128448692903,
                        -0.4500846343761782,
                        0.4552404327452827,
                        -0.16398108793992563,
                        0.12895587351237303,
                        0.885179709382008,
                        -0.6748526424534428,
                        -0.2745213533366653,
                        0.31659044017128585,
                        0.2727772162967492,
                        -0.5111597512325251,
                        -0.2159867940291343,
                        -1.7682291657689526,
                        -0.1088531469822498,
                        1.8733997860942857,
                        -1.1966440760725174,
                        -0.7102103437180327,
                        0.4150103950038455,
                        1.333793210436439,
                        -0.2818833561514531,
                        0.7645456835167516,
                        -0.4514955278840054,
                        0.14364430210994478,
                        0.7753998056392799,
                        -0.2857765238275768,
                        0.16564939775366455,
                        0.595779916396891,
                        -0.23734787621025344,
                        0.03480542672741077,
                        -0.7347945531270856,
                        -0.16351062062817398,
                        -0.8410994463557495,
                        -0.527898901001642,
                        0.20666466381005505,
                        0.4289309622876597,
                        0.012164816308783567,
                        -0.6824572509660148,
                        -0.04318512573382298,
                        4.334684770575854,
                        0.4305316393511766,
                        0.23727090591515337,
                        -1.1565197747750395,
                        0.5658115205440847,
                        -0.8023845466521904,
                        -0.6739377736375093,
                        -0.28590600873303557,
                        1.014887842916866,
                        1.8710484131974292,
                        -0.20322095263416018,
                        -1.2471939434090926,
                        -0.1976909846821749,
                        -0.24413507916490917,
                        -0.190618734183267,
                        0.5576828240153627,
                        0.03570122773709178,
                        -0.42162182384919666,
                        1.433681353880668,
                        -0.12239687328834048,
                        0.23074473996612693,
                        0.22956810680924356,
                        -0.5074077757290905,
                        -1.071161213709883,
                        1.296503247152671,
                        -0.6044322308963385,
                        -0.8092563883595129,
                        -2.1776815498013824,
                        -0.026071358249506564,
                        -0.6025726614076713,
                        -0.48090151902764977,
                        1.280888117769993,
                        0.5356863439794289,
                        -0.2731884415625225,
                        0.27043752180678965,
                        0.45872679344315914,
                        -0.12228683292186762,
                        -0.6198744859832696,
                        -0.1315335313896993,
                        -0.010716609187667852,
                        0.4930882423309982,
                        -1.37538378384937,
                        1.9665570125590879
                    ]
                },
                "bias": {
                    "shape": [
                        1,
                        20
                    ],
                    "array": [
                        -1.2803827802146626,
                        -1.2922585861148919,
                        -1.2376037851230068,
                        -0.22140310669229957,
                        0.4853170766086797,
                        -0.009702784896748314,
                        -0.6334267875927498,
                        -0.3190632968547818,
                        1.7618545727046773,
                        0.19714651531357522,
                        0.7770539934090357,
                        -1.0504259208634883,
                        -0.1861559780993518,
                        1.2034375945640503,
                        -0.5816500092229142,
                        -0.7745378828605182,
                        1.673671629046251,
                        0.668321725970319,
                        0.1358756745871243,
                        -0.9640418002712499
                    ]
                }
            }
        }
    },
    "lastlayer": {
        "basics": {
            "value": {
                "shape": [
                    1,
                    10
                ],
                "array": [
                    0.00044319747972138777,
                    0.0027135085347590785,
                    0.007897099152736854,
                    0.008177723368480865,
                    0.012705900648348891,
                    0.004155780407300198,
                    0.007965540835616859,
                    0.002790134459626854,
                    0.008128592036224326,
                    0.0013123864570822616
                ]
            },
            "remember": {
                "shape": [
                    1,
                    10
                ],
                "array": [
                    0.0,
                    0.0,
                    0.0,
                    0.0,
                    0.0,
                    0.0,
                    0.0,
                    0.0,
                    0.0,
                    0.0
                ]
            },
            "layertype": "recurrent",
            "neurons": 10,
            "activation": "sigmoid",
            "cost_function": "cost_error"
        },
        "specifics": {
            "weights": {
                "shape": [
                    20,
                    10
                ],
                "array": [
                    0.6192619884808475,
                    -0.2640361335480663,
                    -0.05536161850368301,
                    0.18710624756373417,
                    0.01606695703999192,
                    -0.11749624454202182,
                    -0.18507797510215138,
                    -0.229512427204832,
                    0.9563832870536146,
                    0.21560194321452847,
                    -0.9533001374446619,
                    0.5080669356902091,
                    -0.45262015881740475,
                    0.4287776705990591,
                    0.20031083015446954,
                    -0.12571470348759944,
                    0.971560805725963,
                    0.4093307273837607,
                    0.27621892141086724,
                    -0.004640543629597435,
                    -0.18607941098171527,
                    0.10999035416851233,
                    -0.06188816259885602,
                    -0.08106321829764826,
                    -0.49921359291847883,
                    0.605061619562906,
                    -0.03393978272027695,
                    0.21226010259834377,
                    0.48548297927799966,
                    0.03625779270937504,
                    -0.6811573352656883,
                    -1.6614075035892697,
                    -1.1833002714887912,
                    -0.8550455201459254,
                    -0.7049334727419743,
                    -0.3766471586738635,
                    -0.010466202334206346,
                    -1.143728495373097,
                    -0.9569141644434117,
                    -0.838835553847416,
                    0.09448666834989772,
                    0.16836126426298736,
                    0.10941991551620109,
                    0.5993096375423157,
                    -0.3149610535896695,
                    -0.49474512612115834,
                    -0.08531851604248264,
                    -0.1612409537241523,
                    0.04714695524120068,
                    0.2603136623701622,
                    -2.1777905110188933,
                    -1.553177506204414,
                    -1.3617457110875864,
                    -1.9235198467236214,
                    -0.3155361845112818,
                    -1.9613699428810467,
                    -0.5803949255726828,
                    -1.4644710318822596,
                    -1.741505996456189,
                    -1.1041306044410337,
                    0.6085076515523682,
                    0.36081314060120084,
                    -0.4187497229259018,
                    0.5531891083920695,
                    -0.20491662807629313,
                    0.46364561356619477,
                    0.4013292047156633,
                    -0.1392831413703598,
                    0.4089815047178094,
                    -0.26462372794200073,
                    0.3375004149329009,
                    -0.8007139261903737,
                    -0.1541242244540548,
                    -0.34491814374727214,
                    0.24037959483715415,
                    -0.43884244550924484,
                    -0.7063305736047352,
                    1.773939994929661,
                    0.21751986775850984,
                    1.236352968204528,
                    -0.1940548452419011,
                    0.13517095514738428,
                    -1.293685235847917,
                    -0.08718424169363387,
                    -0.2956735172757888,
                    -0.6520770300302176,
                    0.6956952521532096,
                    -0.8331288518823071,
                    -0.17467436720445972,
                    -1.2208429796441733,
                    0.19909695926322984,
                    -0.5769596077253054,
                    0.23755292418638246,
                    0.30613593112076154,
                    -0.4488928770294422,
                    0.37313587046080854,
                    -0.3038909382988689,
                    0.04057199467508541,
                    0.18909998862525929,
                    0.20447988720110905,
                    -0.05210777756193015,
                    0.5719875316683672,
                    0.18629607659517106,
                    0.19627823203857997,
                    -0.7092892234349095,
                    -0.31775043157504024,
                    -0.5503275128448692,
                    0.6514277247225675,
                    -0.2192420113150939,
                    -0.79990387386914,
                    0.7866674918836402,
                    0.6061208449605926,
                    0.5151863983832817,
                    0.0076748717553374105,
                    -0.21852518264653653,
                    -0.5335238979773875,
                    -0.044038000526462034,
                    0.7044846576540339,
                    -0.29023963635946476,
                    0.0566474203815705,
                    -0.04335239614987486,
                    0.8851886488237217,
                    -0.5934745684032079,
                    -0.2763433857636683,
                    -0.3739833741720405,
                    0.05250399777870657,
                    -0.0874133609041175,
                    -0.1831834460177632,
                    -0.2463960130921457,
                    0.26616685426479386,
                    -0.34939086873201874,
                    0.3379591379907976,
                    -0.63448157839234,
                    0.6075178540927403,
                    0.7570869634850214,
                    0.510550613868326,
                    -0.731539347359321,
                    -0.2690863522322088,
                    0.6658145665457441,
                    0.029049493067113158,
                    0.777346085359159,
                    0.19043943547081982,
                    1.190610279157936,
                    1.6700695796457388,
                    0.6714482632207482,
                    0.48439442068595545,
                    0.3370420206636363,
                    -0.18232271673294487,
                    0.4644450611767367,
                    -0.0897690529161127,
                    -0.056195995430948525,
                    0.5207992881972835,
                    1.4083669027814598,
                    0.8433378493745176,
                    -0.3141851284398692,
                    1.1551756549972882,
                    0.2855921719566598,
                    1.6373943907303934,
                    0.7244466499400253,
                    0.787549421097361,
                    0.16931236542042016,
                    -0.04546482232400878,
                    -0.3912298789326082,
                    -0.08621112737521758,
                    0.08085721282562544,
                    -0.1221734858427515,
                    -0.21356368506221468,
                    -0.5284223748365592,
                    -0.3213755816443849,
                    -0.8793261247270008,
                    -0.00515361465103621,
                    -1.1756504688295097,
                    -0.04727084361008031,
                    0.47223399654389175,
                    -0.149974014205094,
                    0.37829103751282195,
                    0.17015589335451642,
                    -0.05413289229777602,
                    -0.7156654350772443,
                    0.3049062150395721,
                    0.6584284594350234,
                    0.7588873729511874,
                    -0.920920473978381,
                    -0.7270011599601114,
                    1.4232345748473567,
                    0.007225006656346837,
                    0.6197678435542432,
                    -0.8219392955628917,
                    -0.8847726711947441,
                    -0.17480286231846304,
                    0.6562556453580665,
                    -1.9701449561061681,
                    -0.27091448296668214,
                    0.2450999951542177,
                    -0.056797136974532675,
                    1.2849729879254728,
                    0.11110627351181535,
                    -1.3373692163695399,
                    -0.1755264630531604,
                    -0.5888429575556138
                ]
            },
            "hidden": {
                "shape": [
                    10,
                    10
                ],
                "array": [
                    4.4859542356268465,
                    -1.242860445131654,
                    -4.184691350672844,
                    -6.308332474017982,
                    -2.2029165735206826,
                    -4.115001486386443,
                    -1.5020966689397373,
                    -3.2286326330276878,
                    -2.510572530373264,
                    -1.5675821506284051,
                    -1.354748305073851,
                    4.480451503024071,
                    -1.5505161532301166,
                    -0.4731284876880651,
                    -1.9811907375258042,
                    0.04898503608419546,
                    -1.2844488209279508,
                    -3.5619860058396178,
                    -1.4730529406026938,
                    -1.4180181282055353,
                    -2.696009923010261,
                    -3.176139346058532,
                    3.521289162975745,
                    -0.9839489833901114,
                    -1.9674561903282843,
                    -1.5685952644183727,
                    -2.420385246340501,
                    -3.4064781590644984,
                    -2.177142721322548,
                    -5.955382990732281,
                    -6.391073125948255,
                    0.8360024327265333,
                    -1.2312179325331387,
                    3.0795257009810757,
                    -7.6158128443959825,
                    -1.9485615707630148,
                    -7.062948925406835,
                    -1.159263469360474,
                    -1.9799682040995727,
                    -1.7820527797015078,
                    -3.7287644123014996,
                    -4.449980701015915,
                    0.1458037647895506,
                    -7.950465004858742,
                    3.8223324447020914,
                    -2.486582192762635,
                    -3.9838131306516837,
                    -0.08903231997418135,
                    -4.128582777661095,
                    -1.7414789992219626,
                    -3.803983575918113,
                    2.364042975998217,
                    -1.027152384419365,
                    -1.6615877991572026,
