{
    "n_inputs": 28,
    "firstlayer": {
        "basics": {
            "value": {
                "shape": [
                    1,
                    28
                ],
                "array": [
                    0.0,
                    0.0,
                    0.0,
                    0.0,
                    0.0,
                    0.0,
                    0.0,
                    0.0,
                    0.0,
                    0.0,
                    0.0,
                    0.0,
                    0.0,
                    0.0,
                    0.0,
                    0.0,
                    0.0,
                    0.0,
                    0.0,
                    0.0,
                    0.0,
                    0.0,
                    0.0,
                    0.0,
                    0.0,
                    0.0,
                    0.0,
                    0.0
                ]
            },
            "remember": {
                "shape": [
                    1,
                    28
                ],
                "array": [
                    0.0,
                    0.0,
                    0.0,
                    0.0,
                    0.0,
                    0.0,
                    0.0,
                    0.0,
                    0.0,
                    0.0,
                    0.0,
                    0.0,
                    0.0,
                    0.0,
                    0.0,
                    0.0,
                    0.0,
                    0.0,
                    0.0,
                    0.0,
                    0.0,
                    0.0,
                    0.0,
                    0.0,
                    0.0,
                    0.0,
                    0.0,
                    0.0
                ]
            },
            "layertype": "base",
            "neurons": 28,
            "activation": "tanh",
            "cost_function": "cost_error"
        },
        "specifics": {}
    },
    "hiddenlayers": {
        "l1": {
            "basics": {
                "value": {
                    "shape": [
                        1,
                        20
                    ],
                    "array": [
                        0.9990613987611832,
                        0.3533261486527131,
                        0.9999973739772063,
                        -0.9989354405757456,
                        0.5742538306389425,
                        0.2169937401648554,
                        0.7589560303109849,
                        0.9998154998163733,
                        -0.9979291250027965,
                        -0.6789547237140471,
                        0.5395017482348967,
                        -0.9976824702217013,
                        0.9974812218774493,
                        0.9625532577196305,
                        0.9583502449878577,
                        0.9940174541550362,
                        0.8272799573248398,
                        -0.9377877019918223,
                        -0.554020345332175,
                        0.9994092167270298
                    ]
                },
                "remember": {
                    "shape": [
                        1,
                        20
                    ],
                    "array": [
                        0.0,
                        0.0,
                        0.0,
                        0.0,
                        0.0,
                        0.0,
                        0.0,
                        0.0,
                        0.0,
                        0.0,
                        0.0,
                        0.0,
                        0.0,
                        0.0,
                        0.0,
                        0.0,
                        0.0,
                        0.0,
                        0.0,
                        0.0
                    ]
                },
                "layertype": "recurrent",
                "neurons": 20,
                "activation": "tanh",
                "cost_function": "cost_error"
            },
            "specifics": {
                "weights": {
                    "shape": [
                        28,
                        20
                    ],
                    "array": [
                        -0.5986335463307303,
                        2.3805243668216485,
                        0.11682060782373971,
                        -2.126482832236214,
                        0.5350952921141209,
                        -0.5279769069161492,
                        3.270973723012917,
                        0.08907315227664336,
                        -4.133792568566992,
                        -1.2636071339745878,
                        -4.208160027864814,
                        -3.658919594329653,
                        7.697476265808362,
                        1.6696847976406004,
                        -2.9864209725123674,
                        3.6301754057051303,
                        0.3933459485559862,
                        9.48829615456547,
                        -3.8299878931704696,
                        -7.418831058820771,
                        -0.47691121767992756,
                        3.640869297239394,
                        3.9378128060856215,
                        -1.6473003797884826,
                        -4.453388381830609,
                        -2.4164062096077905,
                        -0.9486276496023681,
                        -2.7422748405543813,
                        -3.84793776124606,
                        -8.377717440876383,
                        1.821705522585584,
                        -2.0218058831513686,
                        -4.668711285395075,
                        -2.257378214145256,
                        -6.263686913156097,
                        1.7713264049037445,
                        -1.0014290862663346,
                        2.329815718095616,
                        -8.129973911900196,
                        0.22578857881350153,
                        -1.8686908871449541,
                        -1.3610763768118168,
                        8.17000618919603,
                        1.1586510054818158,
                        0.7832579637409699,
                        -1.1763506115999856,
                        -2.430496367998139,
                        -1.8982592587365712,
                        -2.4123753733657396,
                        -0.16806167611203818,
                        2.69952237638491,
                        -0.41402309622517003,
                        -1.8589245913406258,
                        -5.796404345995144,
                        -10.276164199139894,
                        1.8511858409997064,
                        0.8565611056738149,
                        0.16303214636539332,
                        -1.3274321955852013,
                        -0.4488793128834237,
                        -1.7547195574052281,
                        -0.8082357108716455,
                        -0.3489080331731785,
                        0.5874280556256282,
                        6.888016150877446,
                        2.2568001997106664,
                        -2.7408681554884673,
                        1.1250469820031126,
                        3.296375866505908,
                        -5.954947011335278,
                        2.567177130530749,
                        0.13968038662490923,
                        -1.166350577423861,
                        -1.0684949594610633,
                        0.15900516583294566,
                        -0.49053128092247245,
                        -1.3099466104840098,
                        1.5669610413911461,
                        -0.38131468629446247,
                        -0.5757933632205854,
                        -0.6842933088791812,
                        -2.0280798000862887,
                        -2.5732309857354743,
                        -0.5975136446311987,
                        8.553492143423584,
                        0.5148519424760454,
                        -2.879325471390561,
                        -0.5162999944412836,
                        -11.905828676692245,
                        -1.7388353115267174,
                        1.7196371950785043,
                        -0.5248991933056305,
                        0.34942127448873656,
                        -0.027587478172838742,
                        0.7182245875695044,
                        0.13154930237896847,
                        -1.6999317914375325,
                        -0.927082689041596,
                        -0.41612925072614604,
                        -1.7361420666961804,
                        -0.23744441375463982,
                        -5.667477586873597,
                        -0.2799436554897634,
                        -0.31845740178131826,
                        0.4442336199555537,
                        1.8912043025289205,
                        -0.019032299385869096,
                        -1.1485455809407992,
                        -0.7138070922636058,
                        -8.332450697070785,
                        -0.30810364657483236,
                        -1.0146101062809625,
                        0.16592381459183997,
                        -0.40032265881681456,
                        0.17922929069057078,
                        -0.9491215885153419,
                        0.15132511795298262,
                        -0.8488104037595313,
                        -1.0923106943470096,
                        -1.367298218948499,
                        1.4529997333628104,
                        -12.69152719394466,
                        -0.8221479628833626,
                        -0.7222495817608391,
                        -1.074239687889358,
                        -0.04081800112075791,
                        -1.8504952875178908,
                        -2.412933137175238,
                        -1.4166801803379196,
                        -0.33283939867156287,
                        -2.858817213821624,
                        0.10960624590567714,
                        -0.9216803842382939,
                        0.5214154957537122,
                        0.2006352662102473,
                        0.27732135965574994,
                        0.440327973890373,
                        0.4508157121864462,
                        0.24007923660584773,
                        0.06949953438984116,
                        1.3494949962540548,
                        -7.520021570329341,
                        -0.4369664901695759,
                        -1.9733286885989205,
                        -0.4098694404238153,
                        1.0983985717863576,
                        -1.409348677219587,
                        -1.5737809844053074,
                        -1.4905047700407068,
                        -1.5954198755435935,
                        -5.340774353951692,
                        -1.4250605935896634,
                        -0.8476122552860235,
                        0.3728364981633936,
                        0.8112912773033122,
                        -0.1061630307119934,
                        0.28895837713681116,
                        0.9980122163461291,
                        -0.17177378079906003,
                        2.381940438782224,
                        0.3975547151694803,
                        -3.3873747882536502,
                        0.974380198995058,
                        2.2985554142031805,
                        -1.7130873898640513,
                        0.5981393293929225,
                        -0.5707797996465938,
                        -0.08041945485887936,
                        -0.12348181654390844,
                        -0.4325459596658125,
                        -3.1940273602117664,
                        -1.492173682821088,
                        -0.24209798713744105,
                        0.28668283179137205,
                        0.9217426347349118,
                        -0.09827314460741912,
                        0.07377059057286248,
                        1.7142622525403073,
                        -0.2517106722519458,
                        2.036500631986151,
                        -0.5134292794050715,
                        -2.0980524036522694,
                        -0.3372353492161266,
                        6.312315007039572,
                        0.550434665345066,
                        1.1175111409639222,
                        1.2114986623119646,
                        -0.5189729150385308,
                        -0.020803412527390167,
                        -1.1673865667167773,
                        -0.15747351188064956,
                        0.2615877822766527,
                        0.046576398865329216,
                        -0.5881459353028471,
                        0.7477985617608157,
                        -0.13839805403584912,
                        -0.3818406563062013,
                        1.5633790952118163,
                        0.12757402896145398,
                        1.1739805393761023,
                        -1.215914902558506,
                        -0.3841258060120267,
                        0.32647276616856113,
                        1.3517060781019037,
                        0.784666036252659,
                        0.5841457400993035,
                        2.2798257055887206,
                        0.7001990582805171,
                        -0.006008874276833644,
                        -1.6102647053460533,
                        -1.004292096881212,
                        1.9095363934908813,
                        -0.0713384032158896,
                        -0.8105134281406681,
                        1.9797892986338703,
                        0.6529873475099476,
                        0.6270400136461196,
                        2.333353797503178,
                        1.2357198846459525,
                        -0.9531010320819082,
                        -0.037605919710628016,
                        0.2827683374952376,
                        0.9358765369423432,
                        -0.21018042433460069,
                        0.46360472587050644,
                        0.58854652029398,
                        0.05375085508895938,
                        0.18357057061566223,
                        1.876915895980284,
                        -1.6717440782458741,
                        -0.08240836243858682,
                        3.522915651619691,
                        -0.6655494840797296,
                        -1.768524398243401,
                        0.8098434157989038,
                        0.5656924620293312,
                        1.7646632865322198,
                        1.1278241515807315,
                        0.5866503161075111,
                        -1.2451725739418802,
                        0.5757608152852652,
                        -0.08386986266635502,
                        -1.0325216797446952,
                        0.6016388484366227,
                        -0.31089306682585394,
                        0.29046562476366916,
                        -0.1766711433489248,
                        0.38923045695733777,
                        -0.6906691569225856,
                        -1.4990894667357024,
                        -0.3343200537431196,
                        2.774431031401833,
                        -0.2501267990433226,
                        0.4385827437737485,
                        0.8804521778696243,
                        0.2859084813805378,
                        1.0034905703709276,
                        0.4540970929062888,
                        1.9416949196254916,
                        -2.344703004201946,
                        1.079699439211948,
                        0.11083970444131222,
                        -1.5806201836980345,
                        0.24225460993095782,
                        0.6437934807480611,
                        0.10894334134989297,
                        0.286776183120886,
                        1.2969157992735743,
                        0.7690714275730289,
                        1.3445614201084315,
                        0.15315950765574793,
                        1.8381289008554749,
                        -2.067816132225021,
                        2.09823247787622,
                        0.9355581862492608,
                        -0.49352415231825514,
                        -1.5233285750307626,
                        -1.6180128961527804,
                        1.1656828003216433,
                        -1.0065427800824047,
                        -0.3184375780036932,
                        0.4748511154616552,
                        -1.0816955027077797,
                        0.4064500461969053,
                        0.7619786415276397,
                        0.6095083109562882,
                        -0.07517775077081842,
                        1.1351217805667926,
                        0.6382525986993335,
                        0.4694382387301416,
                        -1.5254634827942726,
                        1.53812957797599,
                        -2.1808806922083552,
                        1.7981586026389456,
                        -0.7502519656419921,
                        -2.356621550166472,
                        -2.573088451450225,
                        -1.7235910212236722,
                        0.3235592240924514,
                        -1.5393555309604972,
                        1.1738836344917336,
                        0.5298161389852235,
                        0.5680432136614599,
                        0.2551131069197944,
                        -0.32824079645056026,
                        -1.303608730745191,
                        -0.5352503323540705,
                        0.9675046814392421,
                        0.8174355088760022,
                        -0.713122961568839,
                        -1.2091736215882285,
                        0.7500720635923186,
                        -0.8760673328462718,
                        -0.8369247419829369,
                        -0.3663825440277052,
                        -3.331216487742936,
                        -5.537220737040433,
                        -2.3292641135435486,
                        -0.6365039490063877,
                        -0.520390175336997,
                        0.6713228372930984,
                        -0.06016362349076765,
                        3.461065777962037,
                        0.33652156523490717,
                        0.5459492198789976,
                        -1.676310721816843,
                        0.2869124789438854,
                        0.8728365721005458,
                        1.426425825058613,
                        -1.1443970133666297,
                        -0.39800666083822456,
                        0.017949716101106933,
                        -0.5041293587124712,
                        -1.4533033313310102,
                        1.2588090530654112,
                        -1.866237239469132,
                        -4.462292503688619,
                        -0.8486138849605229,
                        -2.414080626168177,
                        -4.477987375107072,
                        1.1802227447770521,
                        0.1645930572874127,
                        2.2620783596873872,
                        1.3537191074039616,
                        -0.24735068016527834,
                        -1.3439139468549437,
                        -0.08344436413855344,
                        0.15423008159059803,
                        0.11560236845119565,
                        0.7387932915857846,
                        -0.3561717281101916,
                        -0.5038324249801437,
                        0.3763035633588184,
                        -0.9940908586456492,
                        0.28701897384768177,
                        -0.9308043526601282,
                        -2.3824408528073446,
                        -0.45932815018117773,
                        -1.9676674270747878,
                        -14.268510388253636,
                        -0.5422010289675777,
                        0.27778577008849986,
                        3.206758778615903,
                        0.5494802494601622,
                        0.05402877927091311,
                        -1.4020689539780542,
                        -0.5194460684496652,
                        0.7384216553092152,
                        0.8376426458814714,
                        0.8377426967165394,
                        0.359014170564741,
                        0.1343774509775311,
                        -0.20617243012022995,
                        -0.533283473634047,
                        0.5095459384041082,
                        0.2909845870308649,
                        -0.473269606772082,
                        -0.09629759526324677,
                        -3.47296548613641,
                        -15.296996127452159,
                        -1.1147930812214306,
                        0.668096474798506,
                        -2.1839619067371876,
                        -0.7945885770700369,
                        1.015268326428037,
                        -1.3932470327910784,
                        -0.8078701492068242,
                        1.139551630625182,
                        1.2955593701021237,
                        1.011062104849607,
                        -0.17447689039547867,
                        0.2850898201975629,
                        0.8596754418746958,
                        0.0454949752495588,
                        0.2997593653228333,
                        0.19566046403118173,
                        -1.0250813215224077,
                        -0.3663798172036432,
                        -4.298937929458531,
                        -16.10213073199834,
                        0.7659142470807886,
                        -0.6281956533072439,
                        1.2788032452837534,
                        -0.6615733170042846,
                        0.2588720800672654,
                        -0.8455080708879391,
                        -0.610479924916834,
                        -0.09715141076408246,
                        0.2078381459109379,
                        0.7339261832940339,
                        -0.2179763365491168,
                        0.10186322555253854,
                        -0.1641286658605348,
                        -0.6618183071243064,
                        -0.4849660376488352,
                        0.002864149235236646,
                        0.9888443572760779,
                        -1.071978812420007,
                        -4.842452527273347,
                        -8.609185274931782,
                        0.20611528943113064,
                        -0.8323412154541429,
                        10.23971065018397,
                        0.028029201541760945,
                        0.7184365831129926,
                        -0.6990533743949534,
                        -1.5136100099058765,
                        0.2650008045613423,
                        1.1683263926282295,
                        2.1827397503419603,
                        -1.3655264803735445,
                        0.36699476119487795,
                        0.0053584256677468006,
                        0.14105082918944917,
                        0.09927179027698058,
                        0.8777534138469032,
                        1.33246375976623,
                        -1.4012290322022058,
                        -5.161737613457013,
                        -3.7009942267280453,
                        -1.5515975530487414,
                        -0.6523282848438609,
                        11.727789544999702,
                        -0.0010302242374278132,
                        -0.6314136226646788,
                        -0.7122812740307253,
                        -2.820312480704615,
                        6.347987305648906,
                        1.7964671413693625,
                        1.7949066896372974,
                        -2.470857102178586,
                        -0.2027086688116281,
                        0.6263486870795799,
                        3.3722510806663513,
                        0.11808446195483543,
                        4.096775342602816,
                        0.14854217924819846,
                        -1.2781916655378451,
                        -5.494741643587424,
                        -5.96339780492214,
                        -2.4221494741079943,
                        -0.22764488048086218,
                        0.9747136958244217,
                        -0.08402376532783168,
                        -0.15424662999398084,
                        -0.2904862522198757,
                        -0.25548558380016734,
                        8.188251555886813,
                        1.6621530271816491,
                        -1.38232905574744,
                        -10.709569253727668,
                        0.796586405718871,
                        18.626209855461447,
                        3.2825052627630527,
                        -0.08233014712537295,
                        18.634362448545556,
                        -0.3635720234443743,
                        0.6238858288704072,
                        -6.678066943013822,
                        -1.5305197801597743,
                        -0.5480260868510186,
                        -4.430494364045643,
                        -0.9537004666853404,
                        1.9020083712140654,
                        -0.915114050069296,
                        0.5041481753612962,
                        2.5668742500507045,
                        -6.7425374775915845,
                        3.5017800805875017,
                        -2.604933362190618,
                        -8.388413526351075,
                        1.1556446378741276,
                        2.1811925746695864,
                        3.1890173953490955,
                        -3.5714499855485804,
                        5.369761386905806,
                        2.312216994832375,
                        2.860911985351381,
                        0.5344660568063404,
                        -0.03489726695756604,
                        4.761221454219389,
                        -3.745051817807773,
                        -0.8879603692123873,
                        7.012239116085346,
                        -16.753322751655062,
                        5.500740261930946,
                        -3.480994403218506,
                        2.2569033349267227,
                        13.017659678847213,
                        2.9292996635884054,
                        -4.29679505498529,
                        9.858105833354992,
                        6.087794081682254,
                        1.3199925298873307,
                        -0.673749453761667,
                        9.532868219116864,
                        1.9393686367144176,
                        6.270183004251375,
                        6.1384745137179895,
                        3.347051158385939,
                        5.3472532955609235,
                        1.0116194231435525,
                        2.131556564144304,
                        9.063938533609981,
                        -1.1496473537128273,
                        -1.6603256563338988,
                        0.523261639220053,
                        -0.34991860796511387,
                        5.6336770499691555,
                        4.401939521823076,
                        -4.013873876338637,
                        6.205082615738952,
                        2.3684590188939563,
                        2.88949279722908,
                        -4.024165815736445,
                        -0.5826957027840696,
                        -2.1251178687992742,
                        1.1963520777623755,
                        2.4362180995211333,
                        1.3351514348341151,
                        0.6082239414845574,
                        -0.37752416771778363,
                        -0.5307581678625918,
                        0.8381179567674303,
                        -0.6661736581960864,
                        0.5132857001905292,
                        -0.27393156406609964,
                        0.30314157894929167,
                        0.15542910982297997,
                        -0.8609745462760101,
                        -0.6216683349941526,
                        0.2718511611008726,
                        1.3980419169528016,
                        1.6904091172476374,
                        -1.6788538711921328,
                        0.8517904341692668,
                        1.6225927107444826,
                        -0.19941269338695833,
                        0.16361833558088737,
                        0.6309556951471262
                    ]
                },
                "hidden": {
                    "shape": [
                        20,
                        20
                    ],
                    "array": [
                        -0.22996399883865964,
                        0.08556162336367312,
                        1.1735437653018816,
                        0.19047359440533845,
                        0.1225997515587709,
                        -0.6648196407922018,
                        0.35153102945417497,
                        -0.8466160623248883,
                        -0.6258668088522008,
                        -0.23421115797001474,
                        -0.5013960427454192,
                        0.597452120123275,
                        0.888243859145887,
                        1.1150983487959296,
                        -0.6358432848403945,
                        1.5365664564117776,
                        -0.2192231281786901,
                        0.3870531600813062,
                        0.08666550719773061,
                        0.16974144546567718,
                        1.4405629384356724,
                        -0.35574177018477743,
                        -0.029830133436808175,
                        -0.3633595713781595,
                        0.011267676462369433,
                        0.9446470860710667,
                        0.2683421621854945,
                        0.05918263186530821,
                        -0.26422875106176064,
                        -0.41753668623910084,
                        0.19793384128190433,
                        -0.540864341092472,
                        -1.1549948293963082,
                        0.056286655643180396,
                        0.538859999100801,
                        0.052860024706231246,
                        -0.1862189030480422,
                        0.7179222942977495,
                        -0.3423748912522056,
                        0.16760426740844606,
                        -0.11962115450012559,
                        -0.3967672438240021,
                        1.5134628404535637,
                        0.3356317551905574,
                        -0.051613348582217555,
                        0.5021493369713491,
                        0.5306727899961742,
                        0.5877735735722028,
                        -1.5039753925613855,
                        0.128012047143577,
                        0.8499152401564328,
                        -0.23182195988448817,
                        -0.31136816062866507,
                        0.6113362533518516,
                        -0.8603285910335283,
                        0.46164581983697195,
                        0.3879685471464331,
                        -0.7109049460502631,
                        -0.411648191180354,
                        1.0870918573427322,
                        -0.14712548793517505,
                        -0.11642762241342502,
                        -0.9537819880102083,
                        0.9162922557113378,
                        -0.723763175920899,
                        -0.5462896129238743,
                        0.7000074845118214,
                        0.48890612902044056,
                        0.7799357990979339,
                        -0.7227010440579951,
                        0.208803830245047,
                        -0.17158227175388946,
                        0.5184666099128624,
                        0.6529924765209103,
                        -1.2688705848071815,
                        0.4196713787306737,
                        -0.8235370425978704,
                        -0.30858604492195935,
                        0.020800203074541376,
                        -1.005825470168048,
                        -0.05278725802356046,
                        -0.09562093986035422,
                        0.16412168610428826,
                        -0.4351412555854425,
                        0.2681000369559432,
                        0.20544891900471285,
                        0.15795887319672258,
                        -0.6421049881364107,
                        -1.2003499522483325,
                        -1.1518198125552168,
                        0.44266857665148346,
                        0.10972737758820691,
                        -0.032139856556724855,
                        -0.21059451681326408,
                        0.17965035084471936,
                        0.5625608664283567,
                        -0.2816677364456203,
                        1.3397898632497096,
                        -0.027065260492873916,
                        -0.1083573249657635,
                        -0.04011677058190827,
                        -0.12353564867264266,
                        -0.6371707153857211,
                        -0.7665307605065019,
                        0.14660287345497125,
                        -0.1845875591523335,
                        -0.10878806102993421,
                        -0.6618471933646862,
                        0.8328504736952395,
                        0.19020489603552593,
                        -0.0666236395171163,
                        -0.22989816455595774,
                        -0.2765795268538702,
                        0.5302649993933567,
                        -0.15929301928644962,
                        0.1838191855697986,
                        0.08523042439064882,
                        -0.22841714843092348,
                        0.14161747140305916,
                        -0.2443446088988958,
                        1.1502454445605126,
                        0.5520074756900779,
                        -0.5271756427571376,
                        0.470695955916409,
                        -0.84838827621528,
                        -0.6245399263908284,
                        -0.28653495241455473,
                        0.49780275309227057,
                        1.2157947060909802,
                        0.7075576811196146,
                        -0.2718959720178184,
                        -0.3632678921988102,
                        -0.5105025906750461,
                        0.2486969563229784,
                        0.32992497231392165,
                        -0.8420429561634816,
                        -0.528235431759109,
                        0.5901655461433712,
                        -0.1758451116882392,
                        -0.2945401360124026,
                        -0.22705304301871942,
                        0.8289246239113502,
                        0.13763056151816286,
                        -0.11646931396882915,
                        -0.9880257884170802,
                        -0.4183004311654623,
                        0.9184913514208839,
                        0.6241913269116718,
                        -0.0352316297689047,
                        0.7537732653002036,
                        0.3265240888490393,
                        0.003981459141257812,
                        1.7398590065937352,
                        1.6536625056707992,
                        0.5417121627252924,
                        0.4207909599183638,
                        -0.6401008936470123,
                        0.004624683036067232,
                        0.29666343300447956,
                        -0.25565306939786225,
                        -0.08008162867484736,
                        0.6872911280218253,
                        0.21434734785348256,
                        -0.15437580660052108,
                        -0.07365714347150937,
                        -0.5021533851224292,
                        0.405312944257765,
                        -0.7015059555784204,
                        0.042066464617452864,
                        0.9714193135969633,
                        0.1542971727560142,
                        0.0444547569053107,
                        -0.1493941642650487,
                        -0.17977166020174054,
                        0.4200016094474829,
                        -0.18476826110955957,
                        -0.06106338566276431,
                        0.29707015418030036,
                        -0.2024746554153558,
                        0.07450269563305117,
                        -0.9862875949076946,
                        0.26102665706155787,
                        -1.0759559667278338,
                        0.0742612233460217,
                        0.46788348374269556,
                        1.007408432463503,
                        -0.3015718500533001,
                        0.4241682420025298,
                        0.4651850706494327,
                        -0.17294356096583186,
                        -0.18536290707198644,
                        -0.027544147594797508,
                        0.785873820252663,
                        -0.17536217015578032,
                        0.20669056702457855,
                        -0.05607038907277953,
                        -0.46051171166032634,
                        0.4127378800133377,
                        -0.3173709051579805,
                        -0.25456901968166035,
                        0.7282187136715798,
                        -0.4456052205271167,
                        0.2029584447940842,
                        -0.26290746173632856,
                        -0.3901581308584653,
                        0.2203878634039586,
                        0.09931377055993679,
                        -1.985890632706448,
                        -0.059872866742767844,
                        0.1066732288312997,
                        -0.37647820041295826,
                        -0.14791096010851962,
                        -0.7441001235573937,
                        0.3508758213692541,
                        0.9796461890312844,
                        -0.6068208648111435,
                        -0.014871237417722566,
                        -1.3177370829097785,
                        0.013893303186487961,
                        0.38240359049557326,
                        0.34660226706160185,
                        0.03927973768294146,
                        0.17388315500020973,
                        0.006389789327329377,
                        -0.32096899720986083,
                        -0.3921729276609846,
                        0.25848556824685187,
                        0.17824020157879356,
                        -0.15611500738136547,
                        -0.9367158340446393,
                        -0.05277731877912849,
                        -0.09934986926500641,
                        0.07840807562405898,
                        1.4118068620189959,
                        -0.7405627483987987,
                        0.38913932525491945,
                        -0.5634328378479194,
                        1.279387118129942,
                        0.6898727456100063,
                        -0.002874012237205917,
                        0.9143419921317082,
                        0.2146614708990337,
                        0.29909114544386184,
                        0.29925490174925146,
                        -0.4535209575990376,
                        0.4651171350689276,
                        -0.36395903224053305,
                        0.6634758452202679,
                        -0.27711128075510044,
                        -0.7919101797657732,
                        -0.21683537743615927,
                        -0.1423955170813113,
                        0.2370174244716453,
                        0.1722112479922483,
                        0.4078882362728546,
                        -0.2552408764776911,
                        0.5636794816458519,
                        0.018294917812975875,
                        0.051935169613675114,
                        0.1639756452025605,
                        0.322764841341208,
                        0.018081749417961604,
                        -0.10834632804476835,
                        0.009756404838185831,
                        -0.09153706732237482,
                        -0.1956650938305332,
                        0.46723473246679925,
                        0.3241670855772045,
                        -0.17990591579304083,
                        0.3520140428665439,
                        -0.5815704303055591,
                        -0.38405793229796686,
                        0.8246149159088673,
                        -0.2558325282531861,
                        -0.01840873332718304,
                        0.6986195873289104,
                        -0.594233802649158,
                        -0.03407200328396135,
                        0.3228873264279571,
                        0.5026076395257446,
                        -0.2977752934676513,
                        -0.03918485339440687,
                        -0.7262399561313155,
                        -0.14577785044723923,
                        0.09335582886456775,
                        -0.15889430309614216,
                        0.6807635676272991,
                        0.3337840686164351,
                        0.8705611026778362,
                        0.6919565544133313,
                        0.4656648031309628,
                        -0.13047146375709173,
                        0.43907211286011005,
                        -0.2851029953523246,
                        0.04654546228226447,
                        -1.1566569463281648,
                        -0.19194714919708644,
                        -0.11133507382587127,
                        -0.4192449558972774,
                        0.02238006561483044,
                        0.06382297448372404,
                        0.22568207045685434,
                        0.3544515356979241,
                        -0.08807795967363277,
                        0.3265649302931568,
                        0.09810194405836276,
                        -1.3113650162673611,
                        1.0568164411689223,
                        -0.2698959911523444,
                        -0.884849527337896,
                        -0.06671934957158923,
                        0.5686192938888425,
                        -0.5356981659428312,
                        0.25716501720533724,
                        -0.13205411619967752,
                        0.07272558134512624,
                        0.774330480318316,
                        0.731731650759048,
                        0.5194797659695315,
                        0.4416108230726779,
                        -0.1295522670629558,
                        0.19184311235006196,
                        -0.27420003465648884,
                        -0.6424812393069922,
                        0.3080850555371414,
                        -0.4888320625406702,
                        0.615160562623501,
                        1.3264370100251082,
                        0.8130122855186936,
                        0.4631880218761571,
                        0.1471143855058052,
                        -0.8413060805329521,
                        -0.47909864013057607,
                        -0.8647456280561633,
                        1.1012580784796666,
                        -0.5117502722354628,
                        -0.8005680766212235,
                        0.5040599021205112,
                        -0.19727555741794273,
                        -0.3074662392703961,
                        -0.3622801456723949,
                        0.11654439085289259,
                        -0.17955502086468314,
                        0.47383779947322463,
                        -0.18575127158388927,
                        -0.7993879138679523,
                        -0.14377506152750072,
                        0.6495526611649712,
                        -0.44261275081941376,
                        0.09809444994153599,
                        0.17383186161068065,
                        0.2012221807216374,
                        -0.904369970733095,
                        -0.4374181064869316,
                        -0.8414413432429181,
                        -0.09251168860210598,
                        -0.5990637096970501,
                        -0.5274725064534744,
                        0.10015239093878542,
                        -0.35178292388717025,
                        -0.33619580539570965,
                        0.13461149728806693,
                        -0.7281375675619685,
                        0.6852880648253379,
                        -0.5906159681826844,
                        -1.5069453178693617,
                        0.844742049963155,
                        0.42141153405000126,
                        1.5069594983200194,
                        0.6889134955019338,
                        0.7941130937792148,
                        0.7776829023310561,
                        -0.24905368856786814,
                        -0.8064937169110346,
                        1.9493793302994682,
                        -1.5320417817646184,
                        0.3092190358015618,
                        -0.687120641359497,
                        -0.9341107935617385,
                        0.0206965172325565,
                        -2.404596347760235,
                        -0.40160937363719473,
                        -0.3050286129560737,
                        -0.9593232381019949,
                        -0.054645674828529056,
                        -0.7000189420686433,
                        -0.2738842986195643,
                        0.1415934755843361,
                        -0.030481565301285887,
                        -1.5412351722765965,
                        -0.19971374893294025,
                        -0.7180769398127118,
                        0.00391647079212624,
                        -0.42018713420709475,
                        0.4557123323392075,
                        0.4052743628010752,
                        -0.44324780063104313,
                        -0.9915842316271455,
                        0.5483223046665135,
                        0.5145067453169405
                    ]
                },
                "bias": {
                    "shape": [
                        1,
                        20
                    ],
                    "array": [
                        2.8834851621989674,
                        0.6972946790620869,
                        3.1412918034806703,
                        -0.9228938475620181,
                        1.0271027931539345,
                        -0.5735013661413858,
                        1.0984214414556324,
                        2.996854696453862,
                        -1.1648260518057543,
                        0.019674899421079355,
                        1.2393072356408168,
                        -1.4519320371532567,
                        1.9547745992514165,
                        0.11384841509580043,
                        -0.7420178640768375,
                        1.457274972244462,
                        0.4160177539783273,
                        -1.2675120747826247,
                        -1.3379812346432163,
                        0.3635969811021826
                    ]
                }
            }
        },
        "l2": {
            "basics": {
                "value": {
                    "shape": [
                        1,
                        20
                    ],
                    "array": [
                        -0.9999999995263821,
                        -0.999995854908018,
                        -0.8005664113904372,
                        0.9999999999301654,
                        0.9648293414818936,
                        0.988458242381249,
                        -0.9999999998306265,
                        -0.7217793040036732,
                        0.9999999942214187,
                        0.9999999846002787,
                        0.9999944730307487,
                        -0.9942459599421551,
                        0.9994813391109397,
                        0.999999491460877,
                        -0.9999999999939209,
                        -0.9997144941150302,
                        0.999999999999788,
                        0.999999999823439,
                        -0.99998725377126,
                        0.06489348373183965
                    ]
                },
                "remember": {
                    "shape": [
                        1,
                        20
                    ],
                    "array": [
                        0.0,
                        0.0,
                        0.0,
                        0.0,
                        0.0,
                        0.0,
                        0.0,
                        0.0,
                        0.0,
                        0.0,
                        0.0,
                        0.0,
                        0.0,
                        0.0,
                        0.0,
                        0.0,
                        0.0,
                        0.0,
                        0.0,
                        0.0
                    ]
                },
                "layertype": "recurrent",
                "neurons": 20,
                "activation": "tanh",
                "cost_function": "cost_error"
            },
            "specifics": {
                "weights": {
                    "shape": [
                        20,
                        20
                    ],
                    "array": [
                        -1.591294128378037,
                        0.5312100051358475,
                        0.1576805116268394,
                        1.187849892661528,
                        0.6075034916135092,
                        -0.30833211415512096,
                        0.661010776789965,
                        0.6218914847308152,
                        0.548613698925521,
                        -0.5002950457382336,
                        0.259124401560472,
                        0.6116302392761255,
                        0.6896180796467049,
                        0.22812847669743863,
                        -1.4591139196809155,
                        -0.3512568206904714,
                        0.3133408511078591,
                        0.8427816832059858,
                        0.2517958998625364,
                        0.4113266063272365,
                        -0.6243859419358463,
                        0.09181190629215058,
                        0.49972779221289637,
                        -0.47721933485259593,
                        -0.48903580013564335,
                        2.695464236325009,
                        -3.4703233936140188,
                        1.8860480781236373,
                        -0.423431882082368,
                        0.5496603067662411,
                        1.0582489543689306,
                        -2.250101413185603,
                        0.19184479306832114,
                        -0.22817874202948363,
                        0.15286891061475014,
                        1.7382220846496543,
                        0.16886217946423593,
                        0.0765713310369327,
                        0.9453339979296231,
                        -0.5744655452172582,
                        -0.9846743370723903,
                        -0.41954565255366544,
                        -0.8177758212708155,
                        0.5794767143909452,
                        0.3756464782905983,
                        0.2711939323521875,
                        -1.6001600139412153,
                        -0.23917319260429448,
                        0.5754970888917207,
                        -0.46669236919353674,
                        -0.3597123220807826,
                        -0.9229628794793787,
                        1.2100892911069203,
                        0.8543385296418663,
                        -0.8815826416304637,
                        -1.1365406864937304,
                        -0.7852298604696372,
                        0.20670187883125885,
                        -0.6987898254493833,
                        -1.6652742561316132,
                        0.5392496695421352,
                        -0.4939989993978044,
                        0.7202337927069933,
                        -0.42511126878378747,
                        -0.4881955934461453,
                        -0.23860682660209886,
                        0.6515056867345272,
                        0.5953948436840444,
                        -0.7878733656353603,
                        -0.6006846442596779,
                        -0.3264603097126923,
                        0.2615797030479709,
                        0.1867184893064744,
                        -0.5385969210821637,
                        -0.1852949999403264,
                        -0.6088341255888328,
                        0.2636151374291146,
                        -1.6840631459860667,
                        0.7396438134997175,
                        -0.9289080320051811,
                        -0.20433650345496357,
                        -1.0079999969869002,
                        1.1112517573739584,
                        -0.3374385134966921,
                        0.5170382135183098,
                        -0.00158151253912071,
                        -0.12562866669933803,
                        1.3505169082790998,
                        0.6536241991547136,
                        0.5296521802697672,
                        0.036613008133618986,
                        0.538331166615169,
                        0.6590598087964507,
                        0.4671815528631441,
                        -0.07660556170378541,
                        -0.13286679789114003,
                        0.9514621729218073,
                        -0.9631958175350428,
                        1.1087939055810208,
                        -0.5335878709404478,
                        1.4127438430491563,
                        1.324016870756715,
                        -1.64663435121108,
                        2.0435614517691607,
                        -0.3420297866748681,
                        0.44442979791995646,
                        0.30721698769447975,
                        -0.2744556563066809,
                        -0.7959958994330456,
                        -0.1620929512404215,
                        0.3115751484680923,
                        0.10416008901033663,
                        -1.0726091375590667,
                        -0.036464935509512686,
                        -0.9162976109029008,
                        0.23784059677714842,
                        -0.7788898478738898,
                        -0.41862281651762034,
                        0.005512659625549433,
                        -0.8485561790506675,
                        -0.6135222526198136,
                        -0.7865013437337778,
                        -0.9221463736387681,
                        0.6495158402370147,
                        -1.224189156730616,
                        0.9820241922702075,
                        0.5613426023993142,
                        0.7687335190168829,
                        0.06857133086797362,
                        0.21557230561065882,
                        -0.4588227646644644,
                        -0.7195930203681135,
                        -0.10240160080284938,
                        -0.48621189925552843,
                        0.5386322166981279,
                        -0.14543232042574156,
                        -0.4116982310389765,
                        0.41394634605236863,
                        -0.2932210981449171,
                        -0.5533633459702847,
                        1.6751232633961528,
                        -0.17432907056973296,
                        -0.16468020678713302,
                        0.4092315314563872,
                        0.22824456082228317,
                        0.20698168853378993,
                        -0.4614257011102755,
                        -1.495126120222752,
                        0.4890459957023536,
                        0.4501314573605465,
                        0.01946433009984562,
                        -1.7053158050866652,
                        -1.2660887555645899,
                        -0.4829024363288233,
                        -1.9000960511661955,
                        -0.11630082797876304,
                        0.8200280786440469,
                        -0.4934340564460989,
                        -0.4929519316226582,
                        1.9833196394231685,
                        -1.416781654058976,
                        0.6423079543475828,
                        -0.43138472051593124,
                        -0.7985040370780502,
                        0.8161302556088363,
                        -0.4450220691270372,
                        0.05072409050616119,
                        -1.6250565098994552,
                        -0.9928324032404453,
                        -0.9247606879899369,
                        -0.14695509338676357,
                        0.7691615726979184,
                        0.36703858607690765,
                        -0.8050626411606935,
                        -1.1022672211440743,
                        -0.1858125860400885,
                        -1.3061841200352473,
                        0.9392856950696234,
                        0.41841289746705684,
                        -0.838417574528022,
                        0.1701555217029323,
                        0.6779007516788145,
                        0.24116204204548333,
                        -0.2717978722067892,
                        -0.23463603204870148,
                        0.5634518739416466,
                        -0.19530918876204212,
                        -1.009256473509204,
                        -0.5533825902648907,
                        -0.9561364229934219,
                        -0.7398066989073908,
                        -1.5359087554615198,
                        0.3035522388552203,
                        0.7146748331627241,
                        0.191660319009596,
                        0.14245505768000652,
                        0.7916791074522659,
                        0.08227638437058521,
                        0.14948707745699877,
                        -1.4921957062594782,
                        -0.7962004957513885,
                        -0.559136361045233,
                        -0.9580278870415498,
                        1.8577178797329978,
                        -0.44654364523964063,
                        0.5287047891984816,
                        -0.8885470688897843,
                        0.735050843478033,
                        0.02465784852511338,
                        2.057743660049285,
                        -0.22878586712835003,
                        0.608910592769985,
                        -0.09521310666516314,
                        3.1399228167741695,
                        -1.18425847799786,
                        -0.01272073858795001,
                        -0.342296954829519,
                        1.2863041086453644,
                        -1.0886881412964742,
                        0.9035795521518064,
                        1.7435817618489116,
                        2.555961191761391,
                        -0.9912932954361362,
                        -0.6130135317018378,
                        0.014330445226324264,
                        -0.518065315378181,
                        -1.5597851701125698,
                        -0.5967490105578024,
                        -0.5060514732033772,
                        -0.7142399292600655,
                        -2.489109618975257,
                        -3.2745526384802734,
                        -0.19273038088691852,
                        -0.11377165027811437,
                        0.9307170064238826,
                        -1.4857569284331684,
                        -2.809969107652358,
                        -0.6313387219418513,
                        1.7102669015116614,
                        0.07973603951350669,
                        1.23688469822942,
                        -0.6265381123613754,
                        0.3387404390889886,
                        0.6409939487269333,
                        0.3166363610030928,
                        0.03644945254892874,
                        -0.14391284207354532,
                        -0.7731392499465314,
                        -1.3208633914802528,
                        -1.3762663435096205,
                        1.218514361088443,
                        0.24611554979547318,
                        -0.5875422095436852,
                        0.5060285216631147,
                        -0.3387131864877219,
                        0.08326953695454185,
                        0.19604348756668208,
                        -0.06512581226040552,
                        -0.5573232547944915,
                        0.11540243709922568,
                        -0.4562644030962638,
                        -0.3256201517921103,
                        -1.5202652066730984,
                        0.25391079417377405,
                        -0.22345880533342044,
                        0.2826543561672736,
                        0.7816199045562865,
                        -1.4011804076351604,
                        -0.6381110665339427,
                        -0.46358812185400455,
                        -1.5687329642458165,
                        1.0065799733955214,
                        0.460181645177016,
                        0.32762146487806953,
                        0.2920507906524417,
                        0.035572444009546206,
                        0.6257470455649066,
                        0.6591573696622473,
                        0.42044761742306774,
                        0.4229247746307328,
                        0.636263255740493,
                        -0.12041543454392312,
                        0.9386360914340707,
                        0.19417009543368807,
                        0.03842387344675513,
                        -0.49820686788060214,
                        -0.4151454224780031,
                        -0.19725338218611593,
                        -0.5441766274122537,
                        0.19187175149828894,
                        0.8185674284353293,
                        -0.010315012603592666,
                        0.5488020406505053,
                        -0.11238403881511333,
                        -0.25144478390286856,
                        -1.1566234568118243,
                        1.8158023118534334,
                        -1.0582925124671845,
                        1.1201628751247676,
                        -0.5724073475084726,
                        -0.5729262388684783,
                        1.7437257225743725,
                        -0.6771393713225734,
                        -0.37841415320889576,
                        1.4080283695699347,
                        -0.5530036070152229,
                        -2.111752567192089,
                        -0.9001500892669778,
                        -1.9408777779100004,
                        0.6064716575239482,
                        1.086623936389228,
                        0.567512981706867,
                        -1.8250173769998563,
                        -0.11129901153843402,
                        -0.11336429074217011,
                        -0.5900627384261404,
                        -0.6810370361724017,
                        -0.26987928979356096,
                        0.008040720982372612,
                        -0.4645358169317331,
                        -1.2193652278840288,
                        -0.5696849158995438,
                        -1.3555688921305908,
                        1.1218180328885037,
                        -1.1097322899352238,
                        0.2130378112845973,
                        -1.5649547917921383,
                        -0.5061609077755781,
                        -1.0703925945556614,
                        -0.3953752709968317,
                        0.2666243265813909,
                        0.40077703283876137,
                        -0.7311524487810465,
                        -0.6289822686892111,
                        0.4136861213698982,
                        -0.11246461891475401,
                        -0.9144613571841185,
                        0.3783478985253787,
                        0.25078709724727055,
                        0.26834179142058534,
                        -0.26544366225796867,
                        0.27046937173690455,
                        -0.9066628974231112,
                        0.5447287596014607,
                        -1.077284995617413,
                        -0.6674069942806103,
                        0.022152557316401533,
                        0.34847658656961156,
                        -1.2882778444469842,
                        -0.12970705739085542,
                        -0.2052478170484207,
                        -0.044523322759798006,
                        -0.9406080013432858,
                        -1.2665575222996288,
                        1.2001234044345903,
                        0.11073851169387883,
                        -0.4435326374470813,
                        -0.6859269281471818,
                        -0.3254035946405822,
                        -0.8858219318174911,
                        0.11869455547901275,
                        -0.25338816349634624,
                        -0.7952957793783783,
                        1.3513601593464029,
                        2.1989976946717875,
                        1.1973852948395642,
                        -0.49849205784235634,
                        -0.18957540252683405,
                        0.45265936936919876,
                        -0.8800083527528456,
                        -0.13951526212886098,
                        -0.680738662850956,
                        -1.123158509435822,
                        0.5147221983143339,
                        1.812363534592635,
                        -1.0739133327543857,
                        -0.8803517940619823,
                        0.7048969737845011,
                        2.669074162308293,
                        0.686112552138503,
                        -0.5954035851430809,
                        -0.3813254620238863,
                        2.3415898970375486,
                        -1.372696189406161,
                        2.2137416662263827,
                        2.964889522438425,
                        1.0785962980721826,
                        -1.6805319345128291,
                        0.010659828762055826,
                        0.6039985799518598,
                        0.7757730494641952,
                        0.41421484189230945,
                        0.9435171278869258,
                        0.8171514059168904,
                        1.6678119175985406,
                        0.5339426705149453,
                        -0.20602685008683735,
                        0.7741422180184555,
                        -0.34486788316168576,
                        -0.16946116136034245
                    ]
                },
                "hidden": {
                    "shape": [
                        20,
                        20
                    ],
                    "array": [
                        -0.46056010134865966,
                        -0.0037469943120689454,
                        0.15149695115916684,
                        -0.06227517029796423,
                        0.4331649097844793,
                        0.1963405847829177,
                        -0.6735808499158745,
                        -0.22344696495930033,
                        -0.012890510672170074,
                        0.9694391748239041,
                        -0.36992937718338537,
                        0.07025906181962618,
                        0.33202465122806474,
                        0.2550189395266972,
                        0.8840350632823774,
                        -0.12864544627129723,
                        -0.25941712455878263,
                        -0.6642533073809024,
                        0.024480097755824118,
                        -0.4212739303167413,
                        -0.40884888532632657,
                        0.7371942404209608,
                        -0.25846107846926447,
                        -1.673484543412602,
                        0.28930704125235096,
                        -0.414370970681332,
                        1.1816973223754985,
                        0.5574703521031562,
                        0.4897434128078874,
                        0.1491572636411824,
                        0.11070384389702845,
                        -0.24660622484950273,
                        -1.1049859097061814,
                        1.138358358547262,
                        -1.287646244510793,
                        -0.5852822414909522,
                        1.1880941841902546,
                        1.0028524230263414,
                        0.3391556591699191,
                        1.0924866675650335,
                        -0.0648597463979281,
                        -0.7445711668868963,
                        2.994920754224087,
                        0.3098689370199058,
                        1.101916246701405,
                        -0.28552599685839547,
                        0.3987666188158851,
                        -0.6273837077118517,
                        0.5682717980870762,
                        0.6885837190597383,
                        1.456623963297045,
                        -0.05200105140035474,
                        0.5853346241816109,
                        -0.5130151959317413,
                        -0.16467618109217347,
                        0.8102846508227682,
                        0.7018762287520363,
                        -0.2513394157818532,
                        0.8857102573691742,
                        -0.13836544280644775,
                        -1.6807751426044717,
                        -1.972516736294911,
                        -0.6867789169278417,
                        -0.4478284070012417,
                        0.08090554539958289,
                        -0.33760738687242614,
                        -1.3787423238324248,
                        -0.2776310865530153,
                        1.9337321354082004,
                        1.9098599693273548,
                        0.43634143810532344,
                        -0.05504735358474172,
                        1.300297490805654,
                        0.5989743784219759,
                        -1.1308933797646006,
                        -0.6955071702179332,
                        0.8327840817783484,
                        -0.3047429665520795,
                        -0.09386504727961759,
                        0.18851096468275735,
                        0.04683201789691702,
                        0.3213440778739561,
                        0.49625586752496464,
                        0.16324749667827082,
                        0.6491779527095645,
                        -0.008368687014431322,
                        0.5150155654484962,
                        0.6795394844072201,
                        -0.35543028079783184,
                        -0.4540965988134359,
                        0.06293618672713822,
                        0.18253966051341086,
                        0.566216583844626,
                        0.37160352215877285,
                        -0.5167282218304936,
                        0.06637487542155186,
                        0.5634503293601774,
                        0.4883459437039333,
                        -0.06418175213904806,
                        -1.9141437125373175,
                        -1.2334972405012385,
                        -0.10680786116457747,
                        1.01183622760275,
                        0.3110602506370792,
                        0.027805041800560343,
                        0.8316364810823575,
                        0.22323837688286313,
                        -0.05821764889501921,
                        -0.02971287700745883,
                        -0.3793719063173652,
                        0.6982407125768739,
                        -0.6284507084826011,
                        1.7278489112383708,
                        -0.7326330777514631,
                        0.10576828960673054,
                        0.2951379893491502,
                        -0.27494363408066264,
                        0.4636258030769258,
                        1.4400569969027643,
                        -1.4961041049052095,
                        -0.7920226963271736,
                        0.7535703903447354,
                        -0.40798613593007355,
                        -0.6914763153249874,
                        -0.45437500420356186,
                        0.18021361064564378,
                        -0.10501711851198123,
                        0.1495399602614034,
                        -1.6307551033149337,
                        -1.8190478260378216,
                        -0.42789413582916935,
                        -0.030508633543132296,
                        -0.19271068622063225,
                        0.0890225935295326,
                        -0.6002753372433297,
                        -0.05126753912021965,
                        1.2245863056465445,
                        -0.3800013004215431,
                        -0.3373571114028662,
                        0.8196536723434634,
                        0.3215885891378168,
                        0.057702879332006296,
                        -0.13868073731417357,
                        -0.10787343131736801,
                        0.8249749376939435,
                        0.683130508699277,
                        -0.2709446225952318,
                        -0.3447765294407242,
                        -0.12685315247689333,
                        -0.4023422432258962,
                        0.12997272463101425,
                        0.22466616142112467,
                        0.07998028623449631,
                        -0.1373266140807377,
                        -0.22294818202398198,
                        0.5655816310190963,
                        0.26705040482473896,
                        0.24851735670288294,
                        -0.3580633685373345,
                        -0.6953159379292239,
                        -0.4628594862156234,
                        0.609117676146254,
                        -0.8275520824677707,
                        1.444879123990694,
                        0.4612439323502602,
                        0.06524588970415778,
                        -0.12865352091265786,
                        0.7012774359491963,
                        0.26676612328496857,
                        -0.8522094655515361,
                        0.5334519713310009,
                        -0.4344592546178838,
                        1.0824915312997434,
                        0.08461306315578657,
                        -0.42833182827173405,
                        -0.8689878414986055,
                        0.6790800533320737,
                        0.07371588838511112,
                        0.2038926482634022,
                        0.1798887409744322,
                        0.2584624054478843,
                        -0.905573326226814,
                        1.0505050785360102,
                        -0.9617397265828589,
                        -0.7987894224469121,
                        -0.5554698714484689,
                        -0.6884035909531269,
                        -0.11770000045364054,
                        -0.40427832223280674,
                        1.8802837882411199,
                        0.9364675186296708,
                        -1.012498136614637,
                        -0.8805688739048058,
                        -0.4154711179682963,
                        -0.50717530366079,
                        0.3386404210830286,
                        -0.5239222303760863,
                        -0.2881100693157493,
                        0.12853191521236376,
                        -0.10081311286606792,
                        -0.08192719803977874,
                        0.46631021414809637,
                        0.5480061731966649,
                        1.2187067290594416,
                        0.11279033783142783,
                        -0.9782342493796519,
                        0.025489332335638798,
                        0.028575333585419582,
                        -1.168688643838686,
                        0.9171773118397579,
                        0.7940939177720723,
                        -0.39281286116307546,
                        -4.41458542174276,
                        -0.43249751516095813,
                        -2.7942144485700764,
                        -0.4346835770424151,
                        -0.6329552189095308,
                        -0.34582207626716577,
                        -0.058197829409360025,
                        -0.2874811314155654,
                        -0.018349374428548566,
                        0.22628340121032403,
                        -0.26590453805119596,
                        -0.046860906265927094,
                        -0.05859922773103188,
                        1.0405277704548803,
                        0.3846958526788435,
                        -0.7314733152143168,
                        -0.6818028791578781,
                        0.2484562099846076,
                        -0.5281582849254547,
                        0.10293011140337752,
                        -0.32247199826718564,
                        -0.466748636307149,
                        0.6352958135936526,
                        -0.014777690306653093,
                        -1.038307127945937,
                        -0.8828217406310434,
                        0.9617638403906767,
                        1.060575501781648,
                        0.05726459920866378,
                        -0.33457028058065497,
                        0.14766419334571243,
                        0.026386742328096402,
                        -0.18193081678303274,
                        -0.40159057296184675,
                        0.6475610640751618,
                        0.019322926340557822,
                        1.7280551251332092,
                        -1.1513429266828539,
                        -4.147106378264979,
                        -0.20695925326253578,
                        0.5813352160896281,
                        0.4457149467330285,
                        0.2132869383130134,
                        0.7707768780849491,
                        1.4773300197864336,
                        -0.18820851483086426,
                        0.4062434741201897,
                        -0.28497341806391757,
                        1.3652166827605912,
                        1.0144530664859244,
                        0.5296769292768213,
                        -0.6019795322876338,
                        0.0003481791581643034,
                        0.30080923606168714,
                        -0.7833369423328211,
                        -0.036117467958742815,
                        0.22129613174773033,
                        0.4283449667105446,
                        -0.26845785990036986,
                        0.7969799960397752,
                        0.4219126983556071,
                        -0.35107724509679034,
                        0.10652558932768791,
                        0.38513811873618575,
                        2.47787261337141,
                        0.3697126201804127,
                        -0.13062729648175542,
                        -0.07568263743166545,
                        2.475091288783704,
                        0.935625269182369,
                        -0.7533956137336498,
                        -1.2062521179670114,
                        -0.603990474161158,
                        0.0846850968495611,
                        0.5100073292371213,
                        0.6012866180832833,
                        -0.9489446952764174,
                        -1.7164820061924235,
                        -0.4733097295822493,
                        1.484576220716644,
                        -1.4173552770938422,
                        -0.1077448038824241,
                        0.21256368298770828,
                        0.1552276987958025,
                        -1.7918773629624933,
                        -0.16615741327846476,
                        0.7882697503978211,
                        0.9244963262804048,
                        1.9252773698806394,
                        0.18942083295327072,
                        1.1453197247490454,
                        -2.7863439335101265,
                        -1.5158287070096714,
                        -0.04343720326247072,
                        0.7050411954214185,
                        0.42338018492639096,
                        -0.641448187417649,
                        -1.083564081474295,
                        -0.3309262427683054,
                        0.40879693873036,
                        -0.26379540949767444,
                        0.4661066439099515,
                        1.8759000987673222,
                        0.3783199706741791,
                        -1.3577107107672979,
                        0.6079968143251551,
                        0.1767840732637752,
                        -0.9009303688802333,
                        -0.6818811805843774,
                        1.0879433489986499,
                        -0.24394545038775556,
                        0.21539051764755057,
                        0.6520646818714286,
                        -0.12064113731518022,
                        -0.39429385814327594,
                        0.008279832226895217,
                        0.5191797284929116,
                        -0.4299007616648806,
                        -0.27981735434862903,
                        -1.5812407884161142,
                        0.10401907430517929,
                        2.6760660001900103,
                        -0.37738545870524914,
                        -0.4305981720025973,
                        1.4524190756502111,
                        1.5073601284346672,
                        0.3245896866759904,
                        0.708004013329557,
                        0.31166615477827725,
                        0.12852885681405457,
                        1.4306116207537753,
                        -0.2193848859767848,
                        0.6924318535503935,
                        0.8623958990304542,
                        -0.2609262275619559,
                        0.18806994900718893,
                        -0.9434439192448975,
                        -0.274617797049194,
                        -0.3817155468894127,
                        -0.8441430846585855,
                        0.23496746666884977,
                        0.2038345201225351,
                        -0.23470390090632104,
                        0.29753817607568983,
                        0.43081340998146694,
                        5.685682698304494,
                        0.17234072141619367,
                        0.28957157164684744,
                        -1.4810075806791647,
                        0.3813539311842258,
                        -0.2170361420509646,
                        -0.18230642798423588,
                        0.8045562931541639,
                        0.6405922524600824,
                        1.5861083252626906,
                        -0.1891656795764432,
                        -1.2228888093153396,
                        0.09844991826637747,
                        -0.9361628075061428,
                        0.010543071804427652,
                        0.37411081700473564,
                        0.09004816064477511,
                        -0.8588443582371795,
                        1.238403010010678,
                        -0.09261265743587013,
                        0.3562301127593008,
                        0.4343937295048265,
                        -0.39458952654024076,
                        -2.301799076044795,
                        1.7019513427062738,
                        -1.072453203326669,
                        -1.4613107737704583,
                        -2.9505819695054254,
                        -0.348708905149486,
                        -1.470542993463983,
                        -0.15909302834949163,
                        1.060878089876478,
                        0.3864275246692278,
                        -0.3681610916412525,
                        0.888681829937243,
                        0.7152552925653917,
                        -0.07767289945788716,
                        -1.2814659211671398,
                        0.0077080841457925695,
                        -0.16054877800901265,
                        0.5458289463290729,
                        -1.4783172317631808,
                        2.121610800904227
                    ]
                },
                "bias": {
                    "shape": [
                        1,
                        20
                    ],
                    "array": [
                        -1.918969583419099,
                        -1.2558262326685756,
                        -1.8690579482545706,
                        1.109514837675388,
                        1.3543011902556363,
                        -0.19360614623503686,
                        -0.628266130430907,
                        -0.19421605286352525,
                        2.732014133253863,
                        0.5316691455401699,
                        0.7158297190706132,
                        -1.165822807952212,
                        0.25473816298003665,
                        1.2192948920296272,
                        -1.0331563617658992,
                        -2.276663476003064,
                        2.0562560113967097,
                        0.5864071122441264,
                        0.16998811132716812,
                        -0.7221095525469287
                    ]
                }
            }
        }
    },
    "lastlayer": {
        "basics": {
            "value": {
                "shape": [
                    1,
                    10
                ],
                "array": [
                    0.0002899847953269693,
                    0.00020385002116127122,
                    0.0025300787513581457,
                    0.004564016287537313,
                    0.010910278334028658,
                    0.004264356360683599,
                    0.011920461826890954,
                    0.0003921787603636029,
                    0.001278716034189874,
                    0.0013077763160636805
                ]
            },
            "remember": {
                "shape": [
                    1,
                    10
                ],
                "array": [
                    0.0,
                    0.0,
                    0.0,
                    0.0,
                    0.0,
                    0.0,
                    0.0,
                    0.0,
                    0.0,
                    0.0
                ]
            },
            "layertype": "recurrent",
            "neurons": 10,
            "activation": "sigmoid",
            "cost_function": "cost_error"
        },
        "specifics": {
            "weights": {
                "shape": [
                    20,
                    10
                ],
                "array": [
                    0.35333887812617104,
                    -0.5017517226220922,
                    -0.2390962640739026,
                    0.19618355893344658,
                    0.2004640317758155,
                    0.175086703316043,
                    -0.41800489437907135,
                    -0.26254351777032914,
                    0.9862673773205897,
                    -0.16215372423940888,
                    -0.6647480869381069,
                    -0.21706038698796373,
                    -0.37419412627699755,
                    0.5982077762859963,
                    -0.012286314431940622,
                    -0.31625820073680033,
                    0.969003756999031,
                    -0.04195245373173447,
                    0.1469564181643694,
                    0.0967444338040983,
                    -0.15938081186327402,
                    0.2946249220403254,
                    -0.2513086130607498,
                    -0.09186602002029873,
                    -0.490219479266647,
                    0.5894322863451431,
                    -0.25728434251097954,
                    0.17782396158218217,
                    0.3354022790455148,
                    0.1008098643669941,
                    -0.7339520584506534,
                    -1.8202044141905738,
                    -1.3345293313437065,
                    -0.8960657559728173,
                    -0.5218755501817508,
                    0.9198507379671262,
                    0.08771839481980423,
                    -0.9162350362372405,
                    -0.7177760752852396,
                    -0.6304209743825347,
                    0.04506771172206281,
                    -0.05227751500585885,
                    0.11580307823478492,
                    0.3741789522106203,
                    -0.4368338024552602,
                    -0.26766085127181377,
                    -0.34412972065043657,
                    -0.057871352282479555,
                    -0.19578525954645865,
                    0.01056385414129076,
                    -2.6024251847658646,
                    -1.8974589816952225,
                    -1.7231093442644276,
                    -2.1211977650910057,
                    -0.2324181844933652,
                    -2.0833090040391866,
                    -0.28426971844212945,
                    -1.3694789845381998,
                    -1.7180806543781564,
                    -1.0203349972264446,
                    0.5360506602563125,
                    0.17781480052759796,
                    -0.6883926960111445,
                    0.45333863273345115,
                    -0.30831236950647334,
                    0.5747893427893865,
                    0.5601571850418064,
                    -0.6479125365444022,
                    0.4736447752474805,
                    -0.3184287801102471,
                    0.3442284839581599,
                    -0.8017590855971874,
                    -0.44179473062623886,
                    -0.2659526712240599,
                    0.2865529736564572,
                    -0.3228473031983028,
                    -0.854806853834506,
                    1.7791440065156892,
                    0.1395120861796367,
                    1.2504014322516013,
                    -0.004823695278042805,
                    0.09444805104772215,
                    -1.3885793368324362,
                    0.01719365696370221,
                    -0.36636750926200445,
                    -1.0898298613281148,
                    0.7301139649375422,
                    -0.7166914176214955,
                    -0.12770104928219228,
                    -1.3710240522784747,
                    -0.09808940565535393,
                    -0.4578141770868938,
                    0.08653120806902737,
                    -0.043281030321064715,
                    -0.56027359483092,
                    0.1049291242921156,
                    -0.4213991028656576,
                    -0.11680164179897953,
                    0.05804612298789891,
                    0.23365803051764023,
                    -0.31637537120629555,
                    0.4157810340949502,
                    0.1635358958691221,
                    0.42677800924890513,
                    -0.44312803419100594,
                    -0.3501054768780336,
                    -0.6181696861169815,
                    0.4565074172892291,
                    0.034935851831364315,
                    -1.0357746308083144,
                    0.7772581630142743,
                    0.8900643021194996,
                    0.3224990821347783,
                    0.15524020695966642,
                    -0.13941065667524932,
                    -0.8835340518033922,
                    -0.17017361564583983,
                    0.5069111204233565,
                    -0.26611205829015083,
                    0.02998157156639518,
                    -0.2315568700982824,
                    0.8176910640577653,
                    -0.5136965130851976,
                    -0.48448679142423395,
                    -0.33984526501027107,
                    0.017003289223171875,
                    -0.13342239249489005,
                    -0.2632827237095898,
                    -0.07317183323884863,
                    0.07209007656707737,
                    -0.3575961754676099,
                    0.6462570949944288,
                    -0.7497545121845943,
                    0.9709908724244538,
                    0.7718995779330223,
                    0.6786424313717202,
                    -0.7188100847996877,
                    -0.16550558455221925,
                    0.26294915422388915,
                    0.14145727649512543,
                    0.5272902662724621,
                    0.15846877654729963,
                    1.2814488433444395,
                    1.410657562866758,
                    0.9246259573514671,
                    0.9746924656628241,
                    0.08248495233962949,
                    0.10026604805602488,
                    0.8325651827422896,
                    -0.2197468492356412,
                    0.16380777218045803,
                    1.0128107905794694,
                    1.638300466493097,
                    0.8333055474289828,
                    -0.5000795487044385,
                    1.4755820400376254,
                    0.4514140493837054,
                    2.66718247984129,
                    0.85073049062211,
                    0.3374809338810425,
                    0.2595043827628184,
                    -0.28452693110510424,
                    0.08848136013740121,
                    -0.24798767075701145,
                    -0.16520711587345013,
                    0.03727962975508203,
                    -0.10605205768177775,
                    -0.21565106953745727,
                    0.16680737780055116,
                    -0.4837236417413638,
                    -0.040941485080667736,
                    -1.8768516188905529,
                    -0.12841535674950288,
                    0.5170746535830766,
                    0.03804683578688828,
                    0.40161315494807526,
                    0.3510042011388759,
                    -0.20044198568292626,
                    -0.7275501833555262,
                    0.22157817319388773,
                    0.6865385764569525,
                    0.9866980312144085,
                    -1.12307974686271,
                    -0.5624894960689724,
                    1.4572704791445035,
                    -0.21332922023788603,
                    0.633845440044022,
                    -0.8593192581810294,
                    -0.8978275054258866,
                    -0.23155702895508945,
                    0.7426069522067391,
                    -2.156045524017844,
                    -0.3284044889693487,
                    0.3891791374940179,
                    -0.33819390663487875,
                    1.2708193668890404,
                    -0.13029734322696593,
                    -1.2882613419061262,
                    -0.19349892559907445,
                    -0.6686611380767545
                ]
            },
            "hidden": {
                "shape": [
                    10,
                    10
                ],
                "array": [
                    4.652911598748129,
                    -1.2323846021873623,
                    -3.298434500797927,
                    -7.32844154755065,
                    -1.7938243516604135,
                    -3.6364418221343375,
                    -1.871246946400109,
                    -3.5031029976419643,
                    -2.344406487271796,
                    -2.1896988656841256,
                    -1.6907536692715912,
                    3.8730453916074055,
                    -1.461420216707499,
                    -0.8186052060116109,
                    -2.5407103393191526,
                    -0.9978984530250274,
                    -2.390997731793189,
                    -4.5794173190502905,
                    -1.45556634168366,
                    -2.015409217257691,
                    -2.912882057003082,
                    -3.502526658319688,
                    3.6402357523230844,
                    -1.4041109837827745,
                    -3.194661832281152,
                    -1.7835758269627782,
                    -2.7052383411026772,
                    -3.885278381791095,
                    -1.9112903859445338,
                    -9.849356906509284,
                    -9.572555602502202,
                    1.5501455659296262,
                    -1.3741649569172874,
                    2.74999182769261,
                    -9.24590022678773,
                    -2.026512421306514,
                    -6.198329659152474,
                    -1.0234540571476654,
                    -2.1905971264259847,
                    -2.509567899445673,
                    -4.660274070867265,
                    -5.588888413136711,
                    -0.5590377423790518,
                    -10.374721551978611,
                    3.9895601533165252,
                    -2.291173299798863,
                    -4.826517778365235,
                    -1.0909664701567108,
                    -6.047444875335962,
                    -2.2787735789431385,
                    -3.297607535690483,
                    1.6244763622922966,
                    -0.5624867951806656,
                    -2.3080870504366278,
                    -1.2649197615922847,
                    3.045862312683937,
